/* Generated by Edge Impulse
 *
 * Permission is hereby granted, free of charge, to any person obtaining a copy
 * of this software and associated documentation files (the "Software"), to deal
 * in the Software without restriction, including without limitation the rights
 * to use, copy, modify, merge, publish, distribute, sublicense, and/or sell
 * copies of the Software, and to permit persons to whom the Software is
 * furnished to do so, subject to the following conditions:
 *
 * The above copyright notice and this permission notice shall be included in
 * all copies or substantial portions of the Software.
 *
 * THE SOFTWARE IS PROVIDED "AS IS", WITHOUT WARRANTY OF ANY KIND, EXPRESS OR
 * IMPLIED, INCLUDING BUT NOT LIMITED TO THE WARRANTIES OF MERCHANTABILITY,
 * FITNESS FOR A PARTICULAR PURPOSE AND NONINFRINGEMENT. IN NO EVENT SHALL THE
 * AUTHORS OR COPYRIGHT HOLDERS BE LIABLE FOR ANY CLAIM, DAMAGES OR OTHER
 * LIABILITY, WHETHER IN AN ACTION OF CONTRACT, TORT OR OTHERWISE, ARISING FROM,
 * OUT OF OR IN CONNECTION WITH THE SOFTWARE OR THE USE OR OTHER DEALINGS IN THE
 * SOFTWARE.
 */
// Generated on: 25.01.2023 08:32:25

#include <stdio.h>
#include <stdlib.h>
#include "edge-impulse-sdk/tensorflow/lite/c/builtin_op_data.h"
#include "edge-impulse-sdk/tensorflow/lite/c/common.h"
#include "edge-impulse-sdk/tensorflow/lite/micro/micro_mutable_op_resolver.h"
#include "edge-impulse-sdk/porting/ei_classifier_porting.h"

#if EI_CLASSIFIER_PRINT_STATE
#if defined(__cplusplus) && EI_C_LINKAGE == 1
extern "C" {
    extern void ei_printf(const char *format, ...);
}
#else
extern void ei_printf(const char *format, ...);
#endif
#endif

#if defined __GNUC__
#define ALIGN(X) __attribute__((aligned(X)))
#elif defined _MSC_VER
#define ALIGN(X) __declspec(align(X))
#elif defined __TASKING__
#define ALIGN(X) __align(X)
#endif

#ifndef EI_MAX_SCRATCH_BUFFER_COUNT
#define EI_MAX_SCRATCH_BUFFER_COUNT 14
#endif // EI_MAX_SCRATCH_BUFFER_COUNT

#ifndef EI_MAX_OVERFLOW_BUFFER_COUNT
#define EI_MAX_OVERFLOW_BUFFER_COUNT 10
#endif // EI_MAX_OVERFLOW_BUFFER_COUNT

using namespace tflite;
using namespace tflite::ops;
using namespace tflite::ops::micro;

namespace {

constexpr int kTensorArenaSize = 241344;

#if defined(EI_CLASSIFIER_ALLOCATION_STATIC)
uint8_t tensor_arena[kTensorArenaSize] ALIGN(16);
#elif defined(EI_CLASSIFIER_ALLOCATION_STATIC_HIMAX)
#pragma Bss(".tensor_arena")
uint8_t tensor_arena[kTensorArenaSize] ALIGN(16);
#pragma Bss()
#elif defined(EI_CLASSIFIER_ALLOCATION_STATIC_HIMAX_GNU)
uint8_t tensor_arena[kTensorArenaSize] ALIGN(16) __attribute__((section(".tensor_arena")));
#else
#define EI_CLASSIFIER_ALLOCATION_HEAP 1
uint8_t* tensor_arena = NULL;
#endif

static uint8_t* tensor_boundary;
static uint8_t* current_location;

template <int SZ, class T> struct TfArray {
  int sz; T elem[SZ];
};
enum used_operators_e {
  OP_CONV_2D, OP_DEPTHWISE_CONV_2D, OP_PAD, OP_ADD, OP_SOFTMAX,  OP_LAST
};
struct TensorInfo_t { // subset of TfLiteTensor used for initialization from constant memory
  TfLiteAllocationType allocation_type;
  TfLiteType type;
  void* data;
  TfLiteIntArray* dims;
  size_t bytes;
  TfLiteQuantization quantization;
};
struct NodeInfo_t { // subset of TfLiteNode used for initialization from constant memory
  struct TfLiteIntArray* inputs;
  struct TfLiteIntArray* outputs;
  void* builtin_data;
  used_operators_e used_op_index;
};

TfLiteContext ctx{};
TfLiteTensor tflTensors[71];
TfLiteEvalTensor tflEvalTensors[71];
TfLiteRegistration registrations[OP_LAST];
TfLiteNode tflNodes[27];

const TfArray<4, int> tensor_dimension0 = { 4, { 1,96,96,1 } };
const TfArray<1, float> quant0_scale = { 1, { 0.0039215688593685627, } };
const TfArray<1, int> quant0_zero = { 1, { -128 } };
const TfLiteAffineQuantization quant0 = { (TfLiteFloatArray*)&quant0_scale, (TfLiteIntArray*)&quant0_zero, 0 };
const ALIGN(16) int32_t tensor_data1[4*2] = { 
  0, 0, 
  0, 1, 
  0, 1, 
  0, 0, 
};
const TfArray<2, int> tensor_dimension1 = { 2, { 4,2 } };
const ALIGN(16) int8_t tensor_data2[16*3*3*1] = { 
  /* [0][0][][] */ -85, -109, -29, 
  /* [0][1][][] */ 67, -36, 17, 
  /* [0][2][][] */ 32, 127, 19, 
  /* [1][0][][] */ 105, -95, -11, 
  /* [1][1][][] */ -127, 104, 23, 
  /* [1][2][][] */ 14, -2, -13, 
  /* [2][0][][] */ -24, -3, -48, 
  /* [2][1][][] */ 36, 95, 127, 
  /* [2][2][][] */ -12, -94, -79, 
  /* [3][0][][] */ 120, 125, 58, 
  /* [3][1][][] */ 1, -22, -14, 
  /* [3][2][][] */ -101, -127, -43, 
  /* [4][0][][] */ 29, -55, 2, 
  /* [4][1][][] */ 28, -127, 7, 
  /* [4][2][][] */ 20, -89, -7, 
  /* [5][0][][] */ -60, 30, -1, 
  /* [5][1][][] */ -127, 34, 4, 
  /* [5][2][][] */ -81, 26, 0, 
  /* [6][0][][] */ -17, 79, 127, 
  /* [6][1][][] */ -52, 56, -17, 
  /* [6][2][][] */ -37, -53, -90, 
  /* [7][0][][] */ 37, 23, -20, 
  /* [7][1][][] */ 127, 65, -10, 
  /* [7][2][][] */ 26, 2, -22, 
  /* [8][0][][] */ -22, -31, 52, 
  /* [8][1][][] */ -55, -88, 127, 
  /* [8][2][][] */ -27, -62, 96, 
  /* [9][0][][] */ -21, 53, -12, 
  /* [9][1][][] */ -16, 127, -15, 
  /* [9][2][][] */ -10, 85, -8, 
  /* [10][0][][] */ 24, 87, 12, 
  /* [10][1][][] */ -37, -127, -30, 
  /* [10][2][][] */ 12, 40, 17, 
  /* [11][0][][] */ 7, -19, 10, 
  /* [11][1][][] */ 65, -94, 35, 
  /* [11][2][][] */ -85, 127, -46, 
  /* [12][0][][] */ -41, 49, -10, 
  /* [12][1][][] */ -127, 114, 6, 
  /* [12][2][][] */ -79, 79, 5, 
  /* [13][0][][] */ 79, 25, -14, 
  /* [13][1][][] */ 127, 111, -8, 
  /* [13][2][][] */ 48, 83, 32, 
  /* [14][0][][] */ -30, -28, 48, 
  /* [14][1][][] */ 44, 98, -127, 
  /* [14][2][][] */ -16, -70, 80, 
  /* [15][0][][] */ -82, -26, 14, 
  /* [15][1][][] */ -122, -127, 10, 
  /* [15][2][][] */ -33, -87, -16, 
};
const TfArray<4, int> tensor_dimension2 = { 4, { 16,3,3,1 } };
const TfArray<16, float> quant2_scale = { 16, { 0.047968395054340363, 0.21663233637809753, 0.06099846214056015, 0.036214642226696014, 0.0064064390026032925, 0.0074254651553928852, 0.032030805945396423, 0.0073423674330115318, 0.032798655331134796, 0.0078887082636356354, 0.1128401979804039, 0.17660927772521973, 0.063421547412872314, 0.0040626884438097477, 0.1722661554813385, 0.0080303065478801727, } };
const TfArray<16, int> quant2_zero = { 16, { 0,0,0,0,0,0,0,0,0,0,0,0,0,0,0,0 } };
const TfLiteAffineQuantization quant2 = { (TfLiteFloatArray*)&quant2_scale, (TfLiteIntArray*)&quant2_zero, 0 };
const ALIGN(16) int32_t tensor_data3[16] = { 1214, 298, -60, 1676, 59547, 53758, 5630, 5341, 7424, 12073, 1372, 22, 7074, 1561, 88, 43890, };
const TfArray<1, int> tensor_dimension3 = { 1, { 16 } };
const TfArray<16, float> quant3_scale = { 16, { 0.00018811137124430388, 0.0008495385991409421, 0.00023920966486912221, 0.00014201820886228234, 2.5123292289208621e-05, 2.9119473765604198e-05, 0.00012561101175379008, 2.8793599994969554e-05, 0.00012862218136433512, 3.0936113034840673e-05, 0.00044251061626709998, 0.00069258542498573661, 0.00024871196364983916, 1.5932111637084745e-05, 0.00067555357236415148, 3.1491399568039924e-05, } };
const TfArray<16, int> quant3_zero = { 16, { 0,0,0,0,0,0,0,0,0,0,0,0,0,0,0,0 } };
const TfLiteAffineQuantization quant3 = { (TfLiteFloatArray*)&quant3_scale, (TfLiteIntArray*)&quant3_zero, 0 };
const ALIGN(16) int8_t tensor_data4[1*3*3*16] = { 
  /* [0][0][][] */ 1,-5,5,1,-18,11,3,17,-7,-11,-1,-8,-1,-8,3,1, 7,-6,1,1,14,-1,11,-26,-6,9,-6,86,-7,20,4,1, 5,-5,-4,2,1,-13,-1,10,4,3,-2,-10,-5,-5,-5,1, 
  /* [0][1][][] */ 13,-11,3,1,127,-23,-127,-20,127,127,0,-4,114,-25,1,-17, -127,127,127,-4,-88,-90,-13,-101,19,-106,127,127,127,127,127,127, 24,-4,-3,-3,-11,127,9,-10,1,-12,-7,-7,4,-4,-13,-6, 
  /* [0][2][][] */ 4,0,4,-13,-16,16,56,8,-6,-8,0,0,-3,0,-5,-10, 26,-20,0,-127,8,-15,-8,127,-3,1,-1,-14,-15,-58,-11,-35, 6,-5,0,-5,2,-4,3,-3,4,2,-4,-2,-5,-5,-6,-10, 
};
const TfArray<4, int> tensor_dimension4 = { 4, { 1,3,3,16 } };
const TfArray<16, float> quant4_scale = { 16, { 0.0047556273639202118, 0.0081650270149111748, 0.0070476587861776352, 0.0076233665458858013, 0.041859012097120285, 0.032649360597133636, 0.0071290913037955761, 0.032814200967550278, 0.011362225748598576, 0.043773766607046127, 0.009725489653646946, 0.0082765426486730576, 0.0044355182908475399, 0.011683515273034573, 0.0086471792310476303, 0.021135136485099792, } };
const TfArray<16, int> quant4_zero = { 16, { 0,0,0,0,0,0,0,0,0,0,0,0,0,0,0,0 } };
const TfLiteAffineQuantization quant4 = { (TfLiteFloatArray*)&quant4_scale, (TfLiteIntArray*)&quant4_zero, 3 };
const ALIGN(16) int32_t tensor_data5[16] = { 20188, -647, -208, 3534, -1077, 118, 9341, 1378, -555, 260, -2148, 3015, 1140, -581, -437, -1291, };
const TfArray<1, int> tensor_dimension5 = { 1, { 16 } };
const TfArray<16, float> quant5_scale = { 16, { 0.00011189711949555203, 0.00019211828475818038, 0.00016582726675551385, 0.00017937333905138075, 0.00098491797689348459, 0.00076822028495371342, 0.00016774333198554814, 0.00077209883602336049, 0.00026734650600701571, 0.0010299710556864738, 0.0002288350515300408, 0.00019474218424875289, 0.00010436513548484072, 0.00027490625507198274, 0.00020346304518170655, 0.00049729732563719153, } };
const TfArray<16, int> quant5_zero = { 16, { 0,0,0,0,0,0,0,0,0,0,0,0,0,0,0,0 } };
const TfLiteAffineQuantization quant5 = { (TfLiteFloatArray*)&quant5_scale, (TfLiteIntArray*)&quant5_zero, 0 };
const ALIGN(16) int8_t tensor_data6[8*1*1*16] = { 
  /* [0][0][][] */ -11,-12,-13,-64,-22,-37,17,-17,38,6,-33,-6,110,127,-17,-100, 
  /* [1][0][][] */ 127,-57,-38,17,-44,69,-69,-42,-39,81,-31,-53,-8,3,-60,-15, 
  /* [2][0][][] */ -33,-96,35,44,42,-51,-76,-20,29,-85,23,-127,44,-24,-75,24, 
  /* [3][0][][] */ 39,13,12,9,-13,71,-52,-22,127,46,10,24,4,-14,12,25, 
  /* [4][0][][] */ -99,-40,-30,-127,-6,42,57,-118,34,-19,-49,-36,-122,31,-39,-23, 
  /* [5][0][][] */ 86,51,72,-28,49,-42,-127,-118,-15,-72,65,50,-56,50,65,-47, 
  /* [6][0][][] */ 111,36,-127,-83,26,-74,1,-92,-44,21,-122,88,87,-86,2,75, 
  /* [7][0][][] */ -127,-5,103,-32,-64,2,-4,-65,-47,59,82,-30,66,-26,28,29, 
};
const TfArray<4, int> tensor_dimension6 = { 4, { 8,1,1,16 } };
const TfArray<8, float> quant6_scale = { 8, { 0.0070227859541773796, 0.0093173850327730179, 0.0076353051699697971, 0.010117692872881889, 0.0078848553821444511, 0.0067041441798210144, 0.0073861195705831051, 0.011251404881477356, } };
const TfArray<8, int> quant6_zero = { 8, { 0,0,0,0,0,0,0,0 } };
const TfLiteAffineQuantization quant6 = { (TfLiteFloatArray*)&quant6_scale, (TfLiteIntArray*)&quant6_zero, 0 };
const ALIGN(16) int32_t tensor_data7[8] = { -7308, -3163, 11582, -9957, 23053, 7223, -8418, 11015, };
const TfArray<1, int> tensor_dimension7 = { 1, { 8 } };
const TfArray<8, float> quant7_scale = { 8, { 0.00016524203238077462, 0.000219232591916807, 0.00017965424922294915, 0.00023806336685083807, 0.00018552601977717131, 0.00015774456551298499, 0.00017379104974679649, 0.00026473894831724465, } };
const TfArray<8, int> quant7_zero = { 8, { 0,0,0,0,0,0,0,0 } };
const TfLiteAffineQuantization quant7 = { (TfLiteFloatArray*)&quant7_scale, (TfLiteIntArray*)&quant7_zero, 0 };
const ALIGN(16) int8_t tensor_data8[48*1*1*8] = { 
  /* [0][0][][] */ -37,26,1,-14,-85,-43,-127,31, 
  /* [1][0][][] */ 85,-84,-60,-47,127,-92,94,31, 
  /* [2][0][][] */ -95,115,-49,-127,51,-12,-31,38, 
  /* [3][0][][] */ 48,28,96,9,97,118,127,-10, 
  /* [4][0][][] */ -70,-127,55,18,-53,-97,-6,-22, 
  /* [5][0][][] */ 127,-18,75,63,-68,-13,-4,-21, 
  /* [6][0][][] */ 23,33,127,-24,36,-35,-40,28, 
  /* [7][0][][] */ 29,7,-127,-36,-40,95,91,-72, 
  /* [8][0][][] */ 5,126,-32,12,67,127,48,57, 
  /* [9][0][][] */ 10,127,-53,95,24,-106,45,123, 
  /* [10][0][][] */ 1,-127,-13,-30,-84,-123,-65,-78, 
  /* [11][0][][] */ -127,-80,109,50,-3,-69,109,62, 
  /* [12][0][][] */ -23,38,-127,79,27,-54,-74,92, 
  /* [13][0][][] */ 96,-127,90,73,8,33,37,-63, 
  /* [14][0][][] */ -21,91,-46,-127,-29,-111,-28,-58, 
  /* [15][0][][] */ 39,119,36,-23,35,-70,100,-127, 
  /* [16][0][][] */ -121,-127,-60,100,-52,28,-16,89, 
  /* [17][0][][] */ -23,-110,-127,89,-60,76,-42,81, 
  /* [18][0][][] */ -94,-62,-38,97,-4,81,2,127, 
  /* [19][0][][] */ 63,-113,97,-127,16,-64,24,-39, 
  /* [20][0][][] */ -3,65,26,18,34,127,69,-4, 
  /* [21][0][][] */ 26,112,45,-33,36,-67,94,-127, 
  /* [22][0][][] */ 19,13,109,22,-12,127,33,-37, 
  /* [23][0][][] */ -109,-65,34,-68,90,97,-62,-127, 
  /* [24][0][][] */ -100,-97,44,-96,110,109,-58,-127, 
  /* [25][0][][] */ 127,6,-61,-14,11,36,-66,-6, 
  /* [26][0][][] */ -124,-36,-127,-26,-48,-30,19,-2, 
  /* [27][0][][] */ 77,31,4,-55,-127,-20,85,92, 
  /* [28][0][][] */ -127,-81,8,48,-75,-102,7,-2, 
  /* [29][0][][] */ 127,97,40,-118,37,9,-62,-97, 
  /* [30][0][][] */ -91,-63,41,-61,72,83,-49,-127, 
  /* [31][0][][] */ 48,40,-5,127,3,-75,13,11, 
  /* [32][0][][] */ -27,127,-7,39,21,73,-16,50, 
  /* [33][0][][] */ -34,127,-77,15,30,-27,-25,0, 
  /* [34][0][][] */ -127,-101,-49,97,-21,7,11,97, 
  /* [35][0][][] */ -49,127,-31,5,65,111,53,71, 
  /* [36][0][][] */ 69,37,3,-49,-127,-30,104,120, 
  /* [37][0][][] */ -61,108,22,17,-127,101,-21,-98, 
  /* [38][0][][] */ 44,33,33,21,127,67,107,48, 
  /* [39][0][][] */ -25,-75,36,-12,5,36,-95,127, 
  /* [40][0][][] */ -69,-56,-78,127,-26,0,14,70, 
  /* [41][0][][] */ 127,9,57,101,-50,-10,-2,-30, 
  /* [42][0][][] */ -40,4,-62,-127,51,-104,7,78, 
  /* [43][0][][] */ 23,-4,83,-5,39,127,88,8, 
  /* [44][0][][] */ -31,-27,-66,127,47,14,-41,-36, 
  /* [45][0][][] */ 70,123,106,-113,46,-60,33,-127, 
  /* [46][0][][] */ -29,-127,-44,34,-5,41,-60,119, 
  /* [47][0][][] */ 49,43,123,10,95,117,127,-29, 
};
const TfArray<4, int> tensor_dimension8 = { 4, { 48,1,1,8 } };
const TfArray<48, float> quant8_scale = { 48, { 0.0045766299590468407, 0.0040015731938183308, 0.0030744557734578848, 0.0031091228593140841, 0.00079776335041970015, 0.0032239363063126802, 0.0053719459101557732, 0.0020659435540437698, 0.0028032963164150715, 0.0055880676954984665, 0.0032217700500041246, 0.002926284447312355, 0.002288770629093051, 0.0038705638144165277, 0.0030875159427523613, 0.0032789187971502542, 0.0023711088579148054, 0.00089173304149881005, 0.0025093303993344307, 0.0037166320253163576, 0.0042026112787425518, 0.0020538487005978823, 0.0045210616663098335, 0.0036642719060182571, 0.0048090545460581779, 0.0073577845469117165, 0.0032492086756974459, 0.0097935330122709274, 0.0025965620297938585, 0.00070431741187348962, 0.0036364770494401455, 0.0078852390870451927, 0.0039973622187972069, 0.0040861843153834343, 0.0032921349629759789, 0.0032556105870753527, 0.0046424665488302708, 0.0062918942421674728, 0.0038941195234656334, 0.0054040644317865372, 0.0034877650905400515, 0.003154743229970336, 0.0034001953899860382, 0.0044052917510271072, 0.004396114032715559, 0.0023433610331267118, 0.002797640860080719, 0.0029923575930297375, } };
const TfArray<48, int> quant8_zero = { 48, { 0,0,0,0,0,0,0,0,0,0,0,0,0,0,0,0,0,0,0,0,0,0,0,0,0,0,0,0,0,0,0,0,0,0,0,0,0,0,0,0,0,0,0,0,0,0,0,0 } };
const TfLiteAffineQuantization quant8 = { (TfLiteFloatArray*)&quant8_scale, (TfLiteIntArray*)&quant8_zero, 0 };
const ALIGN(16) int32_t tensor_data9[48] = { 1049, -586, -422, 1290, 13055, 2111, -449, 4566, 1676, 1271, 190, 3266, 1300, 528, -882, 414, 3234, 10758, 3109, -635, 982, -1251, -87, 2105, -285, -788, 1604, -41, 3227, 14238, 2117, -56, 461, -50, 2244, -135, 362, -186, 1066, 1090, 1578, 2137, 295, -408, 643, 2261, 1396, -347, };
const TfArray<1, int> tensor_dimension9 = { 1, { 48 } };
const TfArray<48, float> quant9_scale = { 48, { 0.00044728344073519111, 0.00039108196506276727, 0.00030047286418266594, 0.00030386095750145614, 7.7967051765881479e-05, 0.00031508191023021936, 0.00052501127356663346, 0.00020190890063531697, 0.00027397190569899976, 0.00054613332031294703, 0.00031487020896747708, 0.00028599178767763078, 0.00022368624922819436, 0.00037827814230695367, 0.00030174927087500691, 0.00032045546686276793, 0.0002317333419341594, 8.7150903709698468e-05, 0.00024524200125597417, 0.00036323408130556345, 0.00041072981548495591, 0.00020072684856131673, 0.00044185263686813414, 0.00035811681300401688, 0.00046999877667985857, 0.00071909138932824135, 0.00031755183590576053, 0.00095714209601283073, 0.00025376732810400426, 6.883438618388027e-05, 0.00035540037788450718, 0.00077064061770215631, 0.0003906704077962786, 0.0003993511782027781, 0.00032174709485843778, 0.00031817751005291939, 0.00045371777378022671, 0.00061491975793614984, 0.00038058028439991176, 0.00052815029630437493, 0.00034086644882336259, 0.00030831951880827546, 0.00033230806002393365, 0.00043053820263594389, 0.00042964125168509781, 0.00022902147611603141, 0.00027341919485479593, 0.00029244925826787949, } };
const TfArray<48, int> quant9_zero = { 48, { 0,0,0,0,0,0,0,0,0,0,0,0,0,0,0,0,0,0,0,0,0,0,0,0,0,0,0,0,0,0,0,0,0,0,0,0,0,0,0,0,0,0,0,0,0,0,0,0 } };
const TfLiteAffineQuantization quant9 = { (TfLiteFloatArray*)&quant9_scale, (TfLiteIntArray*)&quant9_zero, 0 };
const ALIGN(16) int8_t tensor_data10[1*3*3*48] = { 
  /* [0][0][][] */ -46,-95,-25,-21,127,-64,63,-52,-87,-81,-16,-60,101,39,59,-127,54,-26,2,-35,-89,109,10,20,-25,98,60,-31,74,-70,19,-52,-108,-89,49,72,15,86,125,-74,-122,-20,34,63,51,-127,86,84, -91,-127,-72,46,-82,107,59,-63,-70,41,77,-110,127,94,95,-77,-73,-79,33,-49,-89,90,-76,120,-97,114,90,-120,86,-49,4,-121,-43,-78,80,127,101,118,127,-65,-127,-73,67,80,81,106,83,76, -15,-51,-67,83,-46,-33,23,-8,84,20,54,-72,17,61,-40,0,-78,-14,32,-40,-34,11,-76,-6,-84,62,29,-83,29,55,123,-68,20,18,-12,52,71,66,56,2,-20,91,61,24,39,31,14,-121, 
  /* [0][1][][] */ -104,-86,-31,-71,-78,-83,95,-110,-127,-127,97,-99,76,41,-118,-85,127,-127,-59,-61,-97,127,-32,16,-21,108,97,-48,-107,-77,7,-62,-96,-127,-127,67,43,86,10,-91,53,-16,79,114,89,109,121,-117, -122,-117,-127,-98,-28,127,127,-127,81,65,127,-127,96,127,50,-111,55,-89,-127,-127,-127,124,-127,127,-125,127,127,-127,-127,127,-21,-127,-127,-95,47,124,127,127,-15,-127,87,-97,127,127,127,-2,127,127, -54,-45,-119,127,66,-51,44,-24,55,23,17,-50,5,64,55,-41,-19,6,-11,-59,-74,6,-87,-18,-127,51,37,-87,-54,39,127,-94,-46,22,59,73,74,72,-28,-31,37,127,70,19,53,-47,18,31, 
  /* [0][2][][] */ -123,-25,10,29,-38,-34,34,-53,36,-48,16,-62,4,15,-51,-21,-81,-29,101,-35,-28,64,-59,-8,-5,42,67,-16,31,59,-6,-12,4,-82,-43,30,10,17,-59,-52,21,-10,34,44,28,52,19,-52, -127,-46,-42,-71,92,40,51,-65,96,24,-41,-80,-5,48,-127,-77,33,2,57,-68,-60,27,-66,53,-66,57,65,-31,31,3,-34,-39,-69,-17,-70,51,25,24,-109,-93,22,-44,72,64,40,-108,30,10, -47,-27,-60,-22,-24,-18,9,-19,-74,10,-17,-22,-11,20,21,-29,25,33,7,-48,-39,3,-25,-30,-59,14,21,-20,4,-64,51,-18,-61,28,20,37,14,24,-53,-38,3,51,13,19,16,-8,8,44, 
};
const TfArray<4, int> tensor_dimension10 = { 4, { 1,3,3,48 } };
const TfArray<48, float> quant10_scale = { 48, { 0.0029327848460525274, 0.0041226167231798172, 0.006784078199416399, 0.0065085981041193008, 0.029770545661449432, 0.0062469514086842537, 0.0076378886587917805, 0.0045409328304231167, 0.0053425277583301067, 0.0032098283991217613, 0.002823962364345789, 0.0020638867281377316, 0.0041784779168665409, 0.0027037509717047215, 0.0093554062768816948, 0.0068760793656110764, 0.0053463741205632687, 0.01498662494122982, 0.0056894919835031033, 0.0070001566782593727, 0.0041195214726030827, 0.017781838774681091, 0.0055623906664550304, 0.0094714947044849396, 0.0052957469597458839, 0.0039435788057744503, 0.0025178389623761177, 0.0044082887470722198, 0.0070812352932989597, 0.035203602164983749, 0.0093496404588222504, 0.0033863019198179245, 0.0046148938126862049, 0.0062254536896944046, 0.0071285548619925976, 0.002840038388967514, 0.0047579961828887463, 0.0017530318582430482, 0.004737114068120718, 0.0028675990179181099, 0.0068391701206564903, 0.0058818324469029903, 0.0034653758630156517, 0.0041567725129425526, 0.0034169517457485199, 0.013974369503557682, 0.0031257399823516607, 0.0077363592572510242, } };
const TfArray<48, int> quant10_zero = { 48, { 0,0,0,0,0,0,0,0,0,0,0,0,0,0,0,0,0,0,0,0,0,0,0,0,0,0,0,0,0,0,0,0,0,0,0,0,0,0,0,0,0,0,0,0,0,0,0,0 } };
const TfLiteAffineQuantization quant10 = { (TfLiteFloatArray*)&quant10_scale, (TfLiteIntArray*)&quant10_zero, 3 };
const ALIGN(16) int32_t tensor_data11[48] = { 13416, 5099, 5427, -388, 518, 326, -1012, 31484, 76, 1812, 7746, 64744, 1288, 3481, 551, 11445, -1207, 13357, -161, 8082, 13187, 80, 4117, -9714, 11836, 1204, 1677, 12984, 751, -1149, -9679, 11959, 4703, 1848, -190, 4478, -8088, 12031, -1459, 18723, -59, -166, 3060, 1288, 235, -540, 999, -1136, };
const TfArray<1, int> tensor_dimension11 = { 1, { 48 } };
const TfArray<48, float> quant11_scale = { 48, { 6.9006702688056976e-05, 9.700274677015841e-05, 0.00015962537145242095, 0.00015314348274841905, 0.00070048344787210226, 0.00014698709128424525, 0.00017971503257285804, 0.00010684548033168539, 0.00012570654507726431, 7.5525378633756191e-05, 6.6446176788304001e-05, 4.8562040319666266e-05, 9.8317126685287803e-05, 6.3617670093663037e-05, 0.00022012721456121653, 0.00016179009980987757, 0.00012579704343806952, 0.00035262646269984543, 0.00013387040235102177, 0.00016470957780256867, 9.6929921710398048e-05, 0.00041839620098471642, 0.00013087978004477918, 0.00022285869636107236, 0.00012460580910556018, 9.2790091002825648e-05, 5.9243269788566977e-05, 0.00010372444376116619, 0.00016661730478517711, 0.000828320044092834, 0.00021999154705554247, 7.967769488459453e-05, 0.00010858573659788817, 0.00014648126671090722, 0.00016773070092312992, 6.6824431996792555e-05, 0.00011195285333087668, 4.1247807530453429e-05, 0.00011146150791319087, 6.7472916271071881e-05, 0.00016092165606096387, 0.00013839606253895909, 8.153825910994783e-05, 9.780641266843304e-05, 8.0398865975439548e-05, 0.00032880870276130736, 7.3546827479731292e-05, 0.00018203198851551861, } };
const TfArray<48, int> quant11_zero = { 48, { 0,0,0,0,0,0,0,0,0,0,0,0,0,0,0,0,0,0,0,0,0,0,0,0,0,0,0,0,0,0,0,0,0,0,0,0,0,0,0,0,0,0,0,0,0,0,0,0 } };
const TfLiteAffineQuantization quant11 = { (TfLiteFloatArray*)&quant11_scale, (TfLiteIntArray*)&quant11_zero, 0 };
const ALIGN(16) int8_t tensor_data12[8*1*1*48] = { 
  /* [0][0][][] */ -47,-3,30,10,-36,-16,10,9,-41,-5,-66,-59,-25,-67,-9,-30,43,-41,39,46,-15,30,-38,12,3,-41,56,-17,-5,-18,15,11,82,35,38,-127,16,-4,-17,-36,2,-19,46,51,36,5,26,5, 
  /* [1][0][][] */ 1,35,65,-26,-13,41,-47,-28,5,23,-14,-88,11,85,-17,57,-13,17,-25,-52,9,-78,-28,23,-71,-7,-3,-111,-25,-14,33,-50,48,79,-41,7,127,-32,-1,46,-28,39,-78,-23,111,-19,-29,-28, 
  /* [2][0][][] */ -5,-22,-58,14,-1,43,29,7,-10,38,-2,25,63,-96,15,-58,41,-89,27,37,-25,53,-4,29,-18,66,-21,-69,16,6,18,-67,-49,-92,35,-32,107,24,-12,-61,0,23,78,30,127,18,25,23, 
  /* [3][0][][] */ -4,23,-70,40,14,-34,-75,-102,15,-22,-35,4,5,28,31,78,-15,14,-39,22,6,-100,29,-57,-75,-11,127,-11,-41,0,-65,17,-1,-79,12,-12,-24,-42,-23,102,-48,-33,2,17,38,6,-40,47, 
  /* [4][0][][] */ -24,-47,-7,6,33,-29,-14,-12,30,-30,59,-78,3,28,11,12,-17,-24,15,-11,-2,-55,3,-21,18,-9,40,49,33,21,-16,27,-12,-1,1,-3,-67,81,34,-26,28,-26,-21,-24,-76,13,127,7, 
  /* [5][0][][] */ 45,-22,2,26,29,-42,34,-127,24,-33,-10,122,-79,71,23,-67,4,-92,16,1,-38,65,-42,-48,-64,80,-24,3,-22,53,-43,-35,28,46,33,-3,-43,-4,-43,-44,17,-35,-47,-7,-35,58,93,21, 
  /* [6][0][][] */ 46,-19,21,-9,-35,-19,-33,22,-42,6,-43,127,-41,-37,-4,58,15,44,17,37,39,-83,-18,15,26,41,-64,3,7,-42,11,37,6,12,-17,-1,10,1,-5,-6,-4,-13,41,59,-1,-37,77,-15, 
  /* [7][0][][] */ -27,3,-10,63,33,35,5,29,20,7,70,-3,123,105,62,49,45,51,-13,6,23,-16,-87,-26,17,0,-28,65,36,-22,-34,-18,35,2,42,-100,-74,37,37,59,-36,32,86,127,-60,-31,-107,62, 
};
const TfArray<4, int> tensor_dimension12 = { 4, { 8,1,1,48 } };
const TfArray<8, float> quant12_scale = { 8, { 0.010311371646821499, 0.005175507627427578, 0.0058567612431943417, 0.0060283439233899117, 0.0084604350849986076, 0.0067111761309206486, 0.0083460202440619469, 0.0059520695358514786, } };
const TfArray<8, int> quant12_zero = { 8, { 0,0,0,0,0,0,0,0 } };
const TfLiteAffineQuantization quant12 = { (TfLiteFloatArray*)&quant12_scale, (TfLiteIntArray*)&quant12_zero, 0 };
const ALIGN(16) int32_t tensor_data13[8] = { 8102, 14240, -4865, 6914, -519, 3020, -11919, -19038, };
const TfArray<1, int> tensor_dimension13 = { 1, { 8 } };
const TfArray<8, float> quant13_scale = { 8, { 0.00024262051738332957, 0.00012177665485069156, 0.00013780614244751632, 0.00014184338215272874, 0.00019906906527467072, 0.00015791003534104675, 0.00019637694640550762, 0.00014004869444761425, } };
const TfArray<8, int> quant13_zero = { 8, { 0,0,0,0,0,0,0,0 } };
const TfLiteAffineQuantization quant13 = { (TfLiteFloatArray*)&quant13_scale, (TfLiteIntArray*)&quant13_zero, 0 };
const ALIGN(16) int8_t tensor_data14[48*1*1*8] = { 
  /* [0][0][][] */ 56,127,-86,-78,2,86,2,75, 
  /* [1][0][][] */ 55,-84,47,-127,-60,76,-88,-40, 
  /* [2][0][][] */ -28,127,119,50,111,7,60,3, 
  /* [3][0][][] */ 104,53,-74,66,-3,-113,-127,-39, 
  /* [4][0][][] */ -32,38,18,-74,-25,103,127,55, 
  /* [5][0][][] */ 19,84,-127,-75,47,90,29,-18, 
  /* [6][0][][] */ -7,127,50,47,74,19,16,-71, 
  /* [7][0][][] */ 127,-33,-40,40,20,-4,105,6, 
  /* [8][0][][] */ 68,127,56,86,108,78,90,-92, 
  /* [9][0][][] */ 63,120,-127,-99,8,104,16,74, 
  /* [10][0][][] */ -65,-42,28,-51,0,-31,-45,127, 
  /* [11][0][][] */ 12,-112,-127,-16,16,-13,33,-11, 
  /* [12][0][][] */ -34,-109,-127,-45,-115,36,-74,54, 
  /* [13][0][][] */ -14,12,-97,102,-127,-21,0,-10, 
  /* [14][0][][] */ -67,-36,-127,-6,32,2,-15,-56, 
  /* [15][0][][] */ 20,-99,-127,16,-109,-34,-44,-1, 
  /* [16][0][][] */ 127,-65,-19,67,-85,25,26,105, 
  /* [17][0][][] */ -21,121,127,-18,-43,-16,-34,-17, 
  /* [18][0][][] */ 12,-127,44,70,0,-72,50,-90, 
  /* [19][0][][] */ 127,-43,-53,44,-96,5,43,104, 
  /* [20][0][][] */ -32,-127,84,77,-13,-90,-6,-73, 
  /* [21][0][][] */ -5,-53,-20,-37,127,3,54,19, 
  /* [22][0][][] */ -127,25,-75,54,51,50,-90,-103, 
  /* [23][0][][] */ -82,-55,54,6,-104,123,127,-51, 
  /* [24][0][][] */ -39,43,-18,-55,-34,118,127,-12, 
  /* [25][0][][] */ -59,-121,-127,-66,-89,-23,-37,-41, 
  /* [26][0][][] */ -11,76,-19,127,-96,28,-69,-1, 
  /* [27][0][][] */ 15,-127,30,75,16,-52,11,-122, 
  /* [28][0][][] */ 50,117,50,41,127,-34,38,-53, 
  /* [29][0][][] */ 115,22,-33,-4,91,-127,-92,30, 
  /* [30][0][][] */ 37,-2,35,-127,22,-31,9,-16, 
  /* [31][0][][] */ 46,-48,3,64,-15,29,15,127, 
  /* [32][0][][] */ -94,-46,32,-45,-54,127,54,94, 
  /* [33][0][][] */ -31,48,42,-46,35,127,-113,68, 
  /* [34][0][][] */ 31,127,-85,-53,31,53,-57,55, 
  /* [35][0][][] */ 24,-127,37,70,-27,-68,45,-83, 
  /* [36][0][][] */ -19,-32,-75,-7,-127,-48,-9,5, 
  /* [37][0][][] */ -60,-127,71,76,-51,-87,-19,-57, 
  /* [38][0][][] */ -67,20,59,-72,-127,-81,-60,78, 
  /* [39][0][][] */ 82,-127,67,67,-15,-79,-32,-58, 
  /* [40][0][][] */ 2,64,26,49,-127,-17,-70,27, 
  /* [41][0][][] */ 121,127,-84,-118,60,30,8,6, 
  /* [42][0][][] */ -7,-43,-18,12,127,6,47,16, 
  /* [43][0][][] */ 127,19,81,19,-77,-29,61,103, 
  /* [44][0][][] */ 79,45,-27,12,92,-127,-127,19, 
  /* [45][0][][] */ 52,11,13,17,78,-127,-7,-55, 
  /* [46][0][][] */ 57,-38,-12,127,43,59,19,75, 
  /* [47][0][][] */ -61,-79,38,54,-39,20,127,-64, 
};
const TfArray<4, int> tensor_dimension14 = { 4, { 48,1,1,8 } };
const TfArray<48, float> quant14_scale = { 48, { 0.003186878515407443, 0.002547271316871047, 0.00093561329413205385, 0.0027201580815017223, 0.0032542471308261156, 0.0037243759725242853, 0.0021141720935702324, 0.00086224102415144444, 0.0020292727276682854, 0.0033291010186076164, 0.0040484811179339886, 0.0031321651767939329, 0.00069845549296587706, 0.003422475652769208, 0.0036456170491874218, 0.0006653422606177628, 0.0040031746029853821, 0.0029465733096003532, 0.0036359452642500401, 0.0030018542893230915, 0.0028409527149051428, 0.0028450398240238428, 0.0047430647537112236, 0.0005571268848143518, 0.0020693959668278694, 0.0019379863515496254, 0.00087409757543355227, 0.0034916333388537169, 0.0019102790392935276, 0.0023239131551235914, 0.0069325254298746586, 0.0051685976795852184, 0.0039151939563453197, 0.0032987161539494991, 0.0039472761563956738, 0.0039728078991174698, 0.00277480180375278, 0.0038750828243792057, 0.0033672389108687639, 0.0032195693347603083, 0.0021527009084820747, 0.0032102558761835098, 0.0028806207701563835, 0.0026629690546542406, 0.002194427652284503, 0.0038742197211831808, 0.0045463512651622295, 0.0020621242001652718, } };
const TfArray<48, int> quant14_zero = { 48, { 0,0,0,0,0,0,0,0,0,0,0,0,0,0,0,0,0,0,0,0,0,0,0,0,0,0,0,0,0,0,0,0,0,0,0,0,0,0,0,0,0,0,0,0,0,0,0,0 } };
const TfLiteAffineQuantization quant14 = { (TfLiteFloatArray*)&quant14_scale, (TfLiteIntArray*)&quant14_zero, 0 };
const ALIGN(16) int32_t tensor_data15[48] = { 2476, 4458, 14103, 1374, 2030, -1452, 5124, 15926, 3578, -677, 2602, -2139, 19193, -1917, 1664, 22493, -406, 1999, 328, 2769, 3349, 3699, 590, 27914, 5515, 3933, 16534, 1719, 5520, 4292, 531, 1234, 615, 1642, -149, 123, -2774, -526, 2411, 2116, 5389, 2218, 3892, 3831, 4710, 2307, 2066, 5622, };
const TfArray<1, int> tensor_dimension15 = { 1, { 48 } };
const TfArray<48, float> quant15_scale = { 48, { 0.00023085153952706605, 0.00018451958021614701, 6.7774082708638161e-05, 0.00019704317674040794, 0.00023573159705847502, 0.00026978686219081283, 0.00015314668416976929, 6.2459133914671838e-05, 0.00014699673920404166, 0.00024115387350320816, 0.00029326442745514214, 0.00022688820899929851, 5.0594815547810867e-05, 0.00024791774922050536, 0.00026408169651404023, 4.8196154239121825e-05, 0.00028998250490985811, 0.00021344427659641951, 0.00026338110910728574, 0.00021744873083662242, 0.00020579331612680107, 0.0002060893748421222, 0.00034357878030277789, 4.0357233956456184e-05, 0.00014990317868068814, 0.00014038411609362811, 6.3317995227407664e-05, 0.00025292742066085339, 0.00013837705773767084, 0.00016833993140608072, 0.00050217920215800405, 0.00037440357846207917, 0.00028360934811644256, 0.00023895285266917199, 0.0002859333180822432, 0.00028778280830010772, 0.00020100147230550647, 0.00028070376720279455, 0.00024391651095356792, 0.00023321960179600865, 0.00015593763964716345, 0.0002325449459021911, 0.00020866679551545531, 0.00019290050840936601, 0.00015896024706307799, 0.00028064125217497349, 0.00032932919566519558, 0.00014937642845325172, } };
const TfArray<48, int> quant15_zero = { 48, { 0,0,0,0,0,0,0,0,0,0,0,0,0,0,0,0,0,0,0,0,0,0,0,0,0,0,0,0,0,0,0,0,0,0,0,0,0,0,0,0,0,0,0,0,0,0,0,0 } };
const TfLiteAffineQuantization quant15 = { (TfLiteFloatArray*)&quant15_scale, (TfLiteIntArray*)&quant15_zero, 0 };
const ALIGN(16) int8_t tensor_data16[1*3*3*48] = { 
  /* [0][0][][] */ 14,-50,10,0,-12,-70,-40,75,-35,5,-3,4,44,-2,-7,7,90,1,41,-2,7,-27,-66,17,-3,-12,-6,-21,-60,78,-13,-100,44,-10,-67,-67,-10,-36,-12,1,-12,48,8,5,-14,70,127,-37, -127,-105,-21,127,-59,72,-95,127,33,17,11,-6,52,18,-1,-41,-35,50,30,1,3,127,12,127,127,-26,-49,40,69,-127,-11,-82,61,-15,-48,-122,25,12,-74,-33,-127,-1,-107,-121,39,64,49,127, -15,1,12,8,-21,62,39,55,12,-43,3,4,-23,-2,-3,7,-67,25,-59,-29,-8,-32,127,25,-59,3,4,23,13,42,6,-1,-9,-23,-46,83,7,12,7,83,31,-33,28,-35,-8,36,-13,-18, 
  /* [0][1][][] */ -9,-18,-28,-6,34,-90,127,-84,-5,13,18,32,127,19,5,-26,-30,-36,28,50,70,-76,44,7,-71,127,-77,-27,127,-99,44,-127,-46,3,-83,8,9,-67,-59,7,125,127,9,-127,-63,-53,-3,90, 94,-127,127,-1,127,40,-69,-57,39,127,127,-127,-94,127,127,127,127,127,101,127,127,120,2,5,109,-92,-127,109,34,121,127,-9,-127,127,127,127,-127,127,-127,-112,42,29,-127,-28,127,-127,-17,94, 18,42,-40,-8,-50,127,-115,121,123,-89,22,61,-40,14,15,-57,12,10,-127,18,17,-121,-39,-3,65,-12,-21,127,-86,-41,27,-50,-30,13,99,-26,36,-3,-3,-76,116,-8,31,49,-56,92,108,-98, 
  /* [0][2][][] */ 1,20,6,-34,-12,-69,-13,-10,4,0,-7,3,-3,-9,3,-1,-51,3,10,-25,4,-32,88,-8,-112,8,43,-30,12,3,-2,19,-16,-16,-64,25,-3,-13,4,46,-24,-10,9,-1,-24,21,-8,32, 37,-11,-33,-35,23,3,118,-88,127,-33,-4,4,-65,-14,-14,-69,-17,83,-10,37,15,27,-22,-27,-78,59,77,-13,-99,13,-36,-30,-29,-11,-44,6,49,-21,-5,127,-116,-15,-13,55,30,53,12,-121, -10,38,5,-26,-19,9,-7,-15,-30,-27,-6,5,18,-8,-4,16,46,32,-36,-10,-10,-32,-48,-11,24,-25,29,-23,-24,3,-13,-2,27,-25,-25,-52,-10,9,33,12,-7,-19,6,16,-21,3,69,-60, 
};
const TfArray<4, int> tensor_dimension16 = { 4, { 1,3,3,48 } };
const TfArray<48, float> quant16_scale = { 48, { 0.011393572203814983, 0.0064607430249452591, 0.030421571806073189, 0.010802005417644978, 0.00972032081335783, 0.010138390585780144, 0.0096667930483818054, 0.011801664717495441, 0.0036957196425646544, 0.0092460531741380692, 0.010288060642778873, 0.051151871681213379, 0.018578751012682915, 0.029550021514296532, 0.01407089177519083, 0.033855535089969635, 0.0076505965553224087, 0.0032104882411658764, 0.0098024848848581314, 0.011869858019053936, 0.010968195274472237, 0.0099632972851395607, 0.003225845517590642, 0.020462458953261375, 0.0070253275334835052, 0.014918252825737, 0.02255791611969471, 0.0086618922650814056, 0.010212991386651993, 0.016936207190155983, 0.0059631704352796078, 0.0051245344802737236, 0.0053002955392003059, 0.010696831159293652, 0.0057933847419917583, 0.012270774692296982, 0.069059602916240692, 0.014230838976800442, 0.0057238489389419556, 0.0085608493536710739, 0.0079266168177127838, 0.0062926863320171833, 0.011298022232949734, 0.0085512660443782806, 0.016664257273077965, 0.0036258951295167208, 0.0026802124921232462, 0.0065498393960297108, } };
const TfArray<48, int> quant16_zero = { 48, { 0,0,0,0,0,0,0,0,0,0,0,0,0,0,0,0,0,0,0,0,0,0,0,0,0,0,0,0,0,0,0,0,0,0,0,0,0,0,0,0,0,0,0,0,0,0,0,0 } };
const TfLiteAffineQuantization quant16 = { (TfLiteFloatArray*)&quant16_scale, (TfLiteIntArray*)&quant16_zero, 3 };
const ALIGN(16) int32_t tensor_data17[48] = { -132, 9737, -739, 104, 794, -1528, 1396, -5018, -4846, 299, -6017, -4, -641, -797, -3041, 3004, 6712, 2703, 328, -4521, -7211, 1633, 19714, -5134, -587, -1308, 5495, -6333, 248, 321, -7377, 11566, 6638, 641, 4522, 350, 83, -558, 12846, -1598, 4598, -1632, 3821, 5229, -599, 9579, -1043, -517, };
const TfArray<1, int> tensor_dimension17 = { 1, { 48 } };
const TfArray<48, float> quant17_scale = { 48, { 0.00026808405527845025, 0.00015201748465187848, 0.00071580172516405582, 0.00025416482822038233, 0.00022871344117447734, 0.00023855037579778582, 0.00022745395835954696, 0.00027768622385337949, 8.695811266079545e-05, 0.00021755420311819762, 0.00024207202659454197, 0.0012035734253004193, 0.00043714710045605898, 0.00069529464235529304, 0.00033107982017099857, 0.00079660082701593637, 0.00018001404532697052, 7.5540898251347244e-05, 0.00023064670676831156, 0.00027929077623412013, 0.00025807518977671862, 0.00023443052486982197, 7.5902251410298049e-05, 0.00048146964400075376, 0.00016530182620044798, 0.00035101771936751902, 0.0005307745304889977, 0.0002038092352449894, 0.00024030568602029234, 0.00039849898894317448, 0.00014030990132596344, 0.00012057728599756956, 0.00012471283844206482, 0.00025169015862047672, 0.00013631493493448943, 0.00028872411348856986, 0.0016249318141490221, 0.00033484326559118927, 0.00013467880489770323, 0.00020143175788689405, 0.00018650863785296679, 0.00014806320541538298, 0.00026583581347949803, 0.00020120626140851527, 0.00039210019167512655, 8.531517960363999e-05, 6.3063824200071394e-05, 0.00015411387721542269, } };
const TfArray<48, int> quant17_zero = { 48, { 0,0,0,0,0,0,0,0,0,0,0,0,0,0,0,0,0,0,0,0,0,0,0,0,0,0,0,0,0,0,0,0,0,0,0,0,0,0,0,0,0,0,0,0,0,0,0,0 } };
const TfLiteAffineQuantization quant17 = { (TfLiteFloatArray*)&quant17_scale, (TfLiteIntArray*)&quant17_zero, 0 };
const ALIGN(16) int8_t tensor_data18[8*1*1*48] = { 
  /* [0][0][][] */ -33,-40,-19,-60,4,-11,86,84,-95,-77,-31,11,-47,-6,-57,39,-78,11,15,127,59,-30,11,88,70,74,22,2,-94,-55,-68,-54,-52,95,35,-48,34,-32,88,-6,36,-1,0,-102,31,-25,-32,-73, 
  /* [1][0][][] */ -20,54,-18,-30,-69,61,-13,-46,-35,65,-13,13,57,41,-54,0,-17,-109,75,-55,127,18,-53,31,63,-5,-81,58,43,-16,66,32,-37,-17,2,-15,5,106,-20,-27,65,38,-4,3,107,4,-36,61, 
  /* [2][0][][] */ -23,-39,125,-5,93,-52,-10,24,-34,-2,-15,49,15,-50,-49,-127,-51,-100,-26,16,-99,26,-36,-28,-46,15,2,-50,-39,5,-29,-13,0,-6,24,-9,23,-37,-50,4,32,-35,33,-52,-48,-51,-66,-48, 
  /* [3][0][][] */ 44,16,53,6,16,-35,24,54,-52,-18,49,-24,-61,52,-23,46,59,28,-31,24,-99,-77,127,0,-4,-1,-67,-29,-56,62,103,-64,2,-102,-24,39,-15,-62,-20,66,-79,-57,58,-9,-89,-62,57,-8, 
  /* [4][0][][] */ 16,-17,64,-27,7,-13,-3,-7,-52,-4,-24,6,39,-67,35,-93,39,44,-13,-30,10,33,13,8,-4,-1,50,-11,20,22,-127,-14,-23,-19,-1,18,42,2,34,3,-34,-6,-66,25,-21,-88,3,15, 
  /* [5][0][][] */ 25,-48,62,23,25,16,22,-3,-74,-13,-45,27,35,5,11,-45,86,77,1,-19,88,-57,127,-81,-13,50,6,45,13,19,-33,-52,-16,-42,-33,13,36,24,68,12,-85,22,33,28,61,-19,81,-1, 
  /* [6][0][][] */ -36,52,-120,91,59,9,40,24,-20,-3,60,-74,-86,-24,-32,38,-117,28,-14,93,24,40,-83,-89,-3,-24,29,89,-32,-39,-34,12,38,79,-45,-18,-19,-4,88,7,69,74,-124,-50,-30,127,-53,-31, 
  /* [7][0][][] */ 35,69,-89,20,19,59,122,70,47,76,-118,-5,-48,6,-69,-56,22,37,123,114,81,19,127,25,103,100,-52,100,-71,34,-14,-80,23,-74,-31,23,-3,92,-70,81,-70,49,-2,-89,82,-16,55,-41, 
};
const TfArray<4, int> tensor_dimension18 = { 4, { 8,1,1,48 } };
const TfArray<8, float> quant18_scale = { 8, { 0.0039303330704569817, 0.0046319742687046528, 0.0062528382986783981, 0.0052122236229479313, 0.0054378029890358448, 0.0055400924757122993, 0.0036062945146113634, 0.0036423106212168932, } };
const TfArray<8, int> quant18_zero = { 8, { 0,0,0,0,0,0,0,0 } };
const TfLiteAffineQuantization quant18 = { (TfLiteFloatArray*)&quant18_scale, (TfLiteIntArray*)&quant18_zero, 0 };
const ALIGN(16) int32_t tensor_data19[8] = { 914, -241, 23339, -2889, 5205, -14561, -707, -12667, };
const TfArray<1, int> tensor_dimension19 = { 1, { 8 } };
const TfArray<8, float> quant19_scale = { 8, { 9.2478425358422101e-05, 0.00010898763139266521, 0.00014712561096530408, 0.00012264055840205401, 0.00012794831127393991, 0.00013035512529313564, 8.4853993030264974e-05, 8.5701431089546531e-05, } };
const TfArray<8, int> quant19_zero = { 8, { 0,0,0,0,0,0,0,0 } };
const TfLiteAffineQuantization quant19 = { (TfLiteFloatArray*)&quant19_scale, (TfLiteIntArray*)&quant19_zero, 0 };
const ALIGN(16) int8_t tensor_data20[48*1*1*8] = { 
  /* [0][0][][] */ 70,29,127,-41,65,104,-76,-54, 
  /* [1][0][][] */ 12,-80,-127,7,43,25,35,5, 
  /* [2][0][][] */ -127,-1,-52,-23,52,26,-74,-34, 
  /* [3][0][][] */ 42,68,127,-84,-10,-110,-4,-20, 
  /* [4][0][][] */ -127,17,-60,-31,40,13,-40,-65, 
  /* [5][0][][] */ -107,28,-61,-13,4,37,-84,-127, 
  /* [6][0][][] */ -40,-127,-116,40,100,12,12,48, 
  /* [7][0][][] */ -59,-127,-92,-74,-69,-65,16,81, 
  /* [8][0][][] */ 85,32,-9,-1,101,-75,-127,15, 
  /* [9][0][][] */ -42,54,-49,91,-62,-35,127,-29, 
  /* [10][0][][] */ -29,127,37,60,121,-23,-6,50, 
  /* [11][0][][] */ -87,-28,-18,-9,-85,107,127,-3, 
  /* [12][0][][] */ 66,37,-127,36,-12,-36,-66,-12, 
  /* [13][0][][] */ 65,-25,-71,12,8,-127,-30,-20, 
  /* [14][0][][] */ 11,-78,83,11,127,-109,-53,19, 
  /* [15][0][][] */ -43,-46,-4,127,62,80,-73,33, 
  /* [16][0][][] */ 115,26,-36,21,71,-112,-127,-31, 
  /* [17][0][][] */ 55,127,56,74,43,65,22,-80, 
  /* [18][0][][] */ 33,-22,3,5,127,11,35,-12, 
  /* [19][0][][] */ 14,127,29,12,-116,20,22,-29, 
  /* [20][0][][] */ -36,22,69,-127,25,44,-16,101, 
  /* [21][0][][] */ -30,81,43,-127,26,48,-7,121, 
  /* [22][0][][] */ -74,-77,-100,18,-127,115,100,-23, 
  /* [23][0][][] */ 96,28,-127,12,10,-40,-61,-18, 
  /* [24][0][][] */ -50,23,5,0,-16,74,-127,97, 
  /* [25][0][][] */ -100,-61,-127,7,-62,-70,67,99, 
  /* [26][0][][] */ 46,-6,-37,-37,106,-11,127,-39, 
  /* [27][0][][] */ 127,-62,28,99,-6,30,-17,102, 
  /* [28][0][][] */ 42,58,58,-7,127,-51,62,-33, 
  /* [29][0][][] */ -12,-10,-23,-43,-60,6,127,-29, 
  /* [30][0][][] */ 46,-127,-66,-65,-118,-10,13,-57, 
  /* [31][0][][] */ 8,30,-11,-15,-127,7,-28,-9, 
  /* [32][0][][] */ 46,-62,-68,87,-10,-84,117,-127, 
  /* [33][0][][] */ 48,127,60,38,54,-22,-35,-17, 
  /* [34][0][][] */ -116,-33,127,-1,-18,111,94,13, 
  /* [35][0][][] */ -31,64,127,-17,-73,-70,-35,25, 
  /* [36][0][][] */ -94,10,103,-12,-14,127,83,25, 
  /* [37][0][][] */ -23,-77,-9,-127,-41,-76,73,43, 
  /* [38][0][][] */ 44,-14,88,-50,57,56,-127,13, 
  /* [39][0][][] */ -19,101,-127,-39,-22,-3,6,91, 
  /* [40][0][][] */ 63,-54,18,33,6,-2,9,127, 
  /* [41][0][][] */ -31,82,127,-7,17,84,-67,12, 
  /* [42][0][][] */ 62,-112,-127,-23,-102,3,17,-109, 
  /* [43][0][][] */ 0,-112,33,-100,127,-60,19,48, 
  /* [44][0][][] */ 12,124,127,33,-2,47,-75,15, 
  /* [45][0][][] */ -39,43,11,80,-123,66,-127,24, 
  /* [46][0][][] */ -43,-42,58,49,-127,-126,-34,-8, 
  /* [47][0][][] */ -13,44,42,-104,-127,31,-21,47, 
};
const TfArray<4, int> tensor_dimension20 = { 4, { 48,1,1,8 } };
const TfArray<48, float> quant20_scale = { 48, { 0.0023355246521532536, 0.0034335530363023281, 0.0029649997595697641, 0.0028849863447248936, 0.0019909783732146025, 0.0021581405308097601, 0.0020500554237514734, 0.0015328058507293463, 0.0035717491991817951, 0.0040227225981652737, 0.0022870949469506741, 0.0025641045067459345, 0.0030278395861387253, 0.0029481556266546249, 0.0032108926679939032, 0.0016411711694672704, 0.0029460666701197624, 0.0021724083926528692, 0.0014773864531889558, 0.0035606329329311848, 0.003915905486792326, 0.0029174189548939466, 0.0028793183155357838, 0.0019086127867922187, 0.0027527748607099056, 0.0021981063764542341, 0.0032178664114326239, 0.0027979649603366852, 0.0012587152887135744, 0.0037649173755198717, 0.0018980553140863776, 0.0018571644322946668, 0.0024223120417445898, 0.0021340067032724619, 0.00216645747423172, 0.0032588650938123465, 0.0022805624175816774, 0.0026716594584286213, 0.0025564769748598337, 0.0018279283540323377, 0.0029365965165197849, 0.0011278600431978703, 0.0015131555264815688, 0.0027039051055908203, 0.0012619576882570982, 0.0026209698989987373, 0.0024157727602869272, 0.0030999844893813133, } };
const TfArray<48, int> quant20_zero = { 48, { 0,0,0,0,0,0,0,0,0,0,0,0,0,0,0,0,0,0,0,0,0,0,0,0,0,0,0,0,0,0,0,0,0,0,0,0,0,0,0,0,0,0,0,0,0,0,0,0 } };
const TfLiteAffineQuantization quant20 = { (TfLiteFloatArray*)&quant20_scale, (TfLiteIntArray*)&quant20_zero, 0 };
const ALIGN(16) int32_t tensor_data21[48] = { 1779, -1150, 896, -1513, 4362, -684, 4124, -3838, 873, 491, 2118, 3134, 508, -485, 664, 5567, -1587, 3790, 6960, 678, -632, 2152, -498, 4504, 1779, 2003, 889, -892, 7858, -342, 2653, -1928, -788, 4016, -1317, 1753, 2127, 975, 545, 4801, 2051, 8844, -4199, 1695, 7640, 106, 2409, 1911, };
const TfArray<1, int> tensor_dimension21 = { 1, { 48 } };
const TfArray<48, float> quant21_scale = { 48, { 0.00021341470710467547, 0.00031374994432553649, 0.00027093465905636549, 0.00026362322387285531, 0.00018193088180851191, 0.00019720576528925449, 0.00018732920580077916, 0.00014006416313350201, 0.00032637797994539142, 0.00036758685018867254, 0.00020898932416457683, 0.00023430179862771183, 0.00027667681570164859, 0.00026939547387883067, 0.00029340377659536898, 0.00014996633399277925, 0.00026920458185486495, 0.00019850952958222479, 0.00013500006753019989, 0.0003253621980547905, 0.00035782615304924548, 0.00026658683782443404, 0.00026310529210604727, 0.00017440451483707875, 0.0002515420492272824, 0.00020085775759071112, 0.00029404100496321917, 0.00025567141710780561, 0.00011501841800054535, 0.00034402922028675675, 0.00017343979561701417, 0.00016970328579191118, 0.0002213451371062547, 0.0001950004807440564, 0.00019796575361397117, 0.00029778736643493176, 0.00020839239004999399, 0.00024412991479039192, 0.00023360480554401875, 0.00016703175788279623, 0.00026833923766389489, 0.00010306118201697245, 0.00013826857320964336, 0.00024707644479349256, 0.00011531470227055252, 0.00023949802562128752, 0.00022074759181123227, 0.00028326924075372517, } };
const TfArray<48, int> quant21_zero = { 48, { 0,0,0,0,0,0,0,0,0,0,0,0,0,0,0,0,0,0,0,0,0,0,0,0,0,0,0,0,0,0,0,0,0,0,0,0,0,0,0,0,0,0,0,0,0,0,0,0 } };
const TfLiteAffineQuantization quant21 = { (TfLiteFloatArray*)&quant21_scale, (TfLiteIntArray*)&quant21_zero, 0 };
const ALIGN(16) int8_t tensor_data22[1*3*3*48] = { 
  /* [0][0][][] */ -77,86,-127,98,-93,65,-65,105,-91,-73,69,-51,69,-79,-38,-60,83,73,82,-102,109,-117,61,-107,-84,-60,55,125,-88,-74,-97,57,72,-85,56,-112,-67,-104,87,-25,-7,-91,119,-89,118,62,-72,-65, -103,127,-45,114,-62,113,-51,92,-116,-77,100,-68,108,-97,-66,-73,115,107,127,-127,112,-113,75,-127,-103,-93,66,125,26,-91,-100,127,104,-127,89,-127,-80,-117,105,-80,-100,121,127,-107,-34,115,-101,-88, -52,95,3,28,1,56,-49,16,-54,-31,36,-21,51,-45,-29,-20,45,38,63,-48,31,-52,18,-55,-80,-30,24,37,87,-46,-47,79,43,-81,34,-18,-20,-49,36,-39,-127,-38,67,-44,-78,79,-33,-58, 
  /* [0][1][][] */ -99,92,-61,117,-85,102,-127,110,-86,-83,87,-93,97,-127,-77,-95,99,94,-45,-87,104,-127,105,-92,-126,-84,94,127,-127,-98,-127,82,115,31,95,-120,-106,-127,103,-84,-102,-110,113,-113,127,69,-110,-89, -127,115,-85,127,-127,127,-123,127,-127,-127,127,-127,127,-127,-127,-127,127,127,-43,-100,127,-115,127,-119,-113,-127,127,121,12,-127,-119,117,127,42,127,-117,-127,-106,127,-127,-117,127,110,-127,-75,127,-127,-127, -58,93,-82,39,-35,45,-70,41,-51,-37,51,-53,51,-52,-54,-33,67,52,-37,-35,42,-58,40,-51,-127,-49,48,47,98,-70,-56,114,45,10,56,-26,-41,-26,59,-69,-55,-71,40,-58,-105,80,-41,-74, 
  /* [0][2][][] */ -46,44,-7,48,-46,33,-97,48,-51,-48,35,-61,22,-71,-35,-73,54,47,-84,-24,32,-45,56,-24,-62,-52,30,19,-68,-81,-43,95,29,52,44,-60,-43,-73,19,-74,-120,-56,30,-89,80,32,-44,-73, -63,60,-76,60,-71,50,-93,67,-67,-63,57,-79,43,-70,-80,-66,66,63,-100,-32,35,-50,54,-46,-58,-66,38,35,-2,-100,-49,121,28,64,54,-51,-51,-56,28,-76,-74,78,33,-117,-37,62,-48,-75, -14,50,-79,6,-21,27,-58,30,-23,-20,32,-36,27,-20,-39,-6,44,28,-73,-3,17,-15,24,-3,-65,-21,14,4,60,-32,-20,66,13,36,28,13,-10,-5,7,-52,-9,-28,4,-22,-58,52,-5,-64, 
};
const TfArray<4, int> tensor_dimension22 = { 4, { 1,3,3,48 } };
const TfArray<48, float> quant22_scale = { 48, { 0.003698423970490694, 0.0042686141096055508, 0.003193689975887537, 0.0050324117764830589, 0.0047354153357446194, 0.0035069466102868319, 0.0018952569225803018, 0.0096729183569550514, 0.0044660796411335468, 0.0031683002598583698, 0.0028647212311625481, 0.0039388234727084637, 0.0039077168330550194, 0.0038242856971919537, 0.0021253484301269054, 0.0033659795299172401, 0.0041422001086175442, 0.0026694841217249632, 0.006701786071062088, 0.0019090058049187064, 0.0030733903404325247, 0.0027496288530528545, 0.0040710144676268101, 0.0047576893121004105, 0.0027474353555589914, 0.0030076040420681238, 0.0030399616807699203, 0.0017151845386251807, 0.010276611894369125, 0.0037579974159598351, 0.0025739271659404039, 0.0088913412764668465, 0.0047344528138637543, 0.008127107284963131, 0.0040435399860143661, 0.0034306512679904699, 0.0042046126909554005, 0.002353467745706439, 0.0041099884547293186, 0.0042576799169182777, 0.0023193091619759798, 0.0079404367133975029, 0.0088546639308333397, 0.0032302988693118095, 0.0060799936763942242, 0.0023878819774836302, 0.0017111303750425577, 0.0024377207737416029, } };
const TfArray<48, int> quant22_zero = { 48, { 0,0,0,0,0,0,0,0,0,0,0,0,0,0,0,0,0,0,0,0,0,0,0,0,0,0,0,0,0,0,0,0,0,0,0,0,0,0,0,0,0,0,0,0,0,0,0,0 } };
const TfLiteAffineQuantization quant22 = { (TfLiteFloatArray*)&quant22_scale, (TfLiteIntArray*)&quant22_zero, 3 };
const ALIGN(16) int32_t tensor_data23[48] = { 12489, -1322, 17307, -858, 14478, -2444, 43347, 260, 11173, 29945, 594, 23735, -1715, 13241, 34899, 26393, 172, 1512, 3488, 48348, -788, 20076, 302, 17382, 19192, 34438, -52, -1424, -1376, 16318, 21206, -783, 635, 333, 878, 15268, 9252, 32975, 1632, 19816, 28481, 1113, 1053, 16829, 1440, 1229, 45022, 26138, };
const TfArray<1, int> tensor_dimension23 = { 1, { 48 } };
const TfArray<48, float> quant23_scale = { 48, { 8.7021740910131484e-05, 0.0001004379810183309, 7.5145646405871958e-05, 0.00011840969091281295, 0.00011142154107801616, 8.2516395195852965e-05, 4.4594282371690497e-05, 0.0002275980805279687, 0.00010508422565180808, 7.4548239354044199e-05, 6.740520620951429e-05, 9.2678201326634735e-05, 9.1946283646393567e-05, 8.9983193902298808e-05, 5.0008198741124943e-05, 7.9199518950190395e-05, 9.7463533165864646e-05, 6.2811392126604915e-05, 0.00015768909361213446, 4.491778599913232e-05, 7.2315066063310951e-05, 6.4697152993176132e-05, 9.5788578619249165e-05, 0.00011194563558092341, 6.4645537349861115e-05, 7.0767157012596726e-05, 7.152851321734488e-05, 4.0357284888159484e-05, 0.00024180264153983444, 8.842346869641915e-05, 6.0562993894563988e-05, 0.00020920803945045918, 0.00011139889102196321, 0.00019122606317978352, 9.5142117061186582e-05, 8.0721205449663103e-05, 9.8932068794965744e-05, 5.5375712690874934e-05, 9.6705611213110387e-05, 0.00010018070315709338, 5.4571981308981776e-05, 0.00018683381495065987, 0.00020834503811784089, 7.6007032475899905e-05, 0.00014305867080111057, 5.6185457651736215e-05, 4.0261893445858732e-05, 5.7358138292329386e-05, } };
const TfArray<48, int> quant23_zero = { 48, { 0,0,0,0,0,0,0,0,0,0,0,0,0,0,0,0,0,0,0,0,0,0,0,0,0,0,0,0,0,0,0,0,0,0,0,0,0,0,0,0,0,0,0,0,0,0,0,0 } };
const TfLiteAffineQuantization quant23 = { (TfLiteFloatArray*)&quant23_scale, (TfLiteIntArray*)&quant23_zero, 0 };
const ALIGN(16) int8_t tensor_data24[16*1*1*48] = { 
  /* [0][0][][] */ 27,41,18,-34,73,71,-39,58,-17,107,2,48,-35,32,-15,46,28,77,39,-63,-67,74,-10,46,57,40,38,57,-48,-49,-9,86,-23,9,-72,53,52,-127,-35,9,12,-28,61,-4,-6,-53,-63,-13, 
  /* [1][0][][] */ -48,-2,-83,-46,7,85,-59,22,-10,-36,-43,29,56,-12,-28,-30,-32,-31,-17,22,-64,43,-101,-44,-57,-42,47,65,-26,-36,42,-45,8,-55,-32,49,10,-65,127,-42,-29,28,-47,-18,32,51,31,15, 
  /* [2][0][][] */ 8,3,61,-29,-12,-76,21,26,99,74,-70,18,111,-57,127,91,-66,-27,-24,28,79,-76,-32,-99,20,-36,34,-61,33,48,-46,17,35,-27,56,45,-60,6,0,-26,33,32,68,-10,16,-83,90,-54, 
  /* [3][0][][] */ 35,7,-24,-25,36,117,17,-20,45,-48,25,-22,-52,12,10,43,-42,-65,41,-127,-6,0,-29,-19,-40,95,127,66,-11,-35,30,46,56,-31,92,36,-45,-49,7,39,30,17,-18,8,22,22,-4,-21, 
  /* [4][0][][] */ 95,-6,11,-55,96,83,46,19,65,-17,-107,31,41,-22,10,-18,-97,-127,-13,-97,-20,27,-39,-31,-79,125,-97,121,-61,-53,29,89,42,-55,13,-30,0,15,-26,32,-51,-5,-3,58,-55,105,-27,-52, 
  /* [5][0][][] */ -2,-2,-58,6,-17,54,17,-26,63,52,39,87,54,-18,31,-4,-36,127,-19,34,17,0,-64,-14,35,-4,-67,-37,-18,36,22,-16,-42,6,40,13,-47,13,-82,0,89,-25,23,48,-16,6,-34,30, 
  /* [6][0][][] */ 58,4,15,73,9,-24,104,-56,-12,63,127,108,44,44,-51,58,42,-43,-70,90,49,-58,-43,59,-86,92,84,-2,113,60,-27,-6,95,-66,-119,-10,107,41,5,1,16,63,58,-28,63,123,33,-5, 
  /* [7][0][][] */ -98,-8,-20,24,-67,-64,24,41,80,119,-58,-69,-93,9,-19,-17,-75,96,7,120,-49,48,21,38,-18,-88,-33,-86,27,43,-8,13,-15,7,8,-16,8,-53,127,20,6,41,27,-14,56,69,-30,2, 
  /* [8][0][][] */ -15,-94,57,-64,69,-59,72,-39,-29,-127,35,9,-40,9,28,21,-4,12,-35,103,7,36,-24,34,67,-9,-65,-33,-121,-14,-47,-115,2,-70,6,81,-11,46,113,20,17,-8,64,123,-14,-73,-40,91, 
  /* [9][0][][] */ 18,-31,13,-62,30,80,-44,51,18,-38,-29,-20,14,-37,108,-21,7,-108,46,46,-69,42,59,-40,-21,-80,-21,72,63,76,-32,-33,-55,28,-11,127,-26,-36,-53,-29,-29,1,28,108,45,75,-59,19, 
  /* [10][0][][] */ -14,15,-26,-9,16,25,-69,-38,48,36,65,-13,-37,-5,49,-54,-61,127,-7,52,1,-13,25,31,-47,39,3,88,43,5,-33,-13,68,11,-6,25,-11,-50,-41,15,-84,1,24,-17,11,44,29,27, 
  /* [11][0][][] */ -28,52,-23,39,28,60,-3,10,18,17,-127,-72,76,20,-10,-49,6,26,-42,-46,-7,-10,110,1,42,5,-25,38,-7,31,-8,49,23,-4,-48,-2,38,84,106,13,28,-33,57,-5,-57,-17,86,0, 
  /* [12][0][][] */ -63,3,37,17,-58,-54,2,7,-35,-37,-127,16,72,-98,20,34,44,102,87,-123,-31,48,-40,-82,7,-15,34,-27,5,17,-18,79,74,77,36,-29,-51,-24,31,1,-28,21,65,2,36,-14,-37,-32, 
  /* [13][0][][] */ -59,-115,-51,-95,0,22,55,8,-127,30,114,-58,52,43,113,3,113,25,-2,-84,68,-73,109,1,-77,5,-19,8,-43,-95,-103,6,43,-27,-73,55,29,-52,75,-73,-9,59,60,30,57,-20,103,-67, 
  /* [14][0][][] */ 68,28,-55,4,-34,24,-90,-29,-29,52,54,46,-9,-66,15,-43,49,-109,17,14,83,-56,26,-11,-6,122,-83,12,-64,-25,-90,0,127,43,84,-13,-78,15,-24,55,-14,-50,108,-21,-54,-48,-52,63, 
  /* [15][0][][] */ -67,8,37,21,93,0,3,33,21,75,-14,55,52,-10,-33,-19,11,43,-7,-35,25,-42,-47,-49,47,-62,-35,64,-26,5,16,1,-63,5,127,-5,-87,15,57,-15,-48,-10,17,-5,-32,-31,-9,10, 
};
const TfArray<4, int> tensor_dimension24 = { 4, { 16,1,1,48 } };
const TfArray<16, float> quant24_scale = { 16, { 0.005847773514688015, 0.0063683968037366867, 0.0051332726143300533, 0.0055728326551616192, 0.0038010964635759592, 0.006037131417542696, 0.0045565962791442871, 0.0064463573507964611, 0.0047632711939513683, 0.0038704178296029568, 0.0065818442963063717, 0.0069528617896139622, 0.0045423358678817749, 0.0041479780338704586, 0.0055718524381518364, 0.0054487176239490509, } };
const TfArray<16, int> quant24_zero = { 16, { 0,0,0,0,0,0,0,0,0,0,0,0,0,0,0,0 } };
const TfLiteAffineQuantization quant24 = { (TfLiteFloatArray*)&quant24_scale, (TfLiteIntArray*)&quant24_zero, 0 };
const ALIGN(16) int32_t tensor_data25[16] = { -3492, 12865, -19765, 122, 12282, -15214, -41541, -9472, -5806, 6629, -14605, -12773, 5086, -10194, -4097, -2910, };
const TfArray<1, int> tensor_dimension25 = { 1, { 16 } };
const TfArray<16, float> quant25_scale = { 16, { 0.0001375946740154177, 0.00014984463632572442, 0.00012078289000783116, 0.00013112547458149493, 8.9437562564853579e-05, 0.0001420501503162086, 0.00010721402941271663, 0.00015167899255175143, 0.00011207697389181703, 9.1068657638970762e-05, 0.00015486692427657545, 0.00016359674918930978, 0.00010687849135138094, 9.7599484433885664e-05, 0.00013110240979585797, 0.00012820512347389013, } };
const TfArray<16, int> quant25_zero = { 16, { 0,0,0,0,0,0,0,0,0,0,0,0,0,0,0,0 } };
const TfLiteAffineQuantization quant25 = { (TfLiteFloatArray*)&quant25_scale, (TfLiteIntArray*)&quant25_zero, 0 };
const ALIGN(16) int8_t tensor_data26[96*1*1*16] = { 
  /* [0][0][][] */ 43,-14,4,72,-127,-23,95,51,69,87,-29,49,20,1,42,94, 
  /* [1][0][][] */ -16,34,-115,1,127,117,-12,8,-3,11,-46,53,-67,96,-74,-58, 
  /* [2][0][][] */ -42,54,71,-4,54,92,-5,24,48,-9,42,-14,48,-127,-12,8, 
  /* [3][0][][] */ 127,-27,13,17,38,43,-1,-4,45,19,-57,-20,-34,48,-40,68, 
  /* [4][0][][] */ -82,-30,0,41,-127,-13,-113,-36,-6,43,-8,-69,-42,29,-68,121, 
  /* [5][0][][] */ -115,1,45,-4,127,24,12,25,-61,26,-27,9,-68,57,-101,-40, 
  /* [6][0][][] */ -127,8,-36,20,-2,-61,71,20,-1,-25,-54,27,6,-7,-47,2, 
  /* [7][0][][] */ 7,117,87,-77,95,42,127,-6,55,9,-29,67,125,41,-18,2, 
  /* [8][0][][] */ -56,-34,-80,67,-60,100,-53,-80,28,-56,92,37,127,59,-118,11, 
  /* [9][0][][] */ -25,-127,-26,68,-41,-73,-15,72,40,49,4,72,-84,9,-10,-32, 
  /* [10][0][][] */ -44,-96,-74,65,-127,114,53,-75,14,-89,27,-73,55,90,-93,62, 
  /* [11][0][][] */ -42,-77,-16,40,12,82,50,-14,17,18,19,-69,22,127,-111,99, 
  /* [12][0][][] */ -28,-102,-111,108,-112,-112,36,64,86,69,-25,127,-8,-78,-49,-5, 
  /* [13][0][][] */ -64,-15,-26,-6,-15,0,25,17,-16,127,-8,-23,34,29,17,-14, 
  /* [14][0][][] */ -125,-69,-33,-37,-6,83,-52,-127,125,-49,50,3,123,-56,-106,-114, 
  /* [15][0][][] */ 5,-127,96,-47,-53,-28,12,52,20,-48,-90,-34,86,-41,-24,-48, 
  /* [16][0][][] */ -12,-44,21,-36,38,28,-14,-28,60,-127,27,-25,7,-13,-66,-97, 
  /* [17][0][][] */ -15,3,22,-50,9,4,-41,-1,127,-86,45,77,111,-84,-26,-119, 
  /* [18][0][][] */ 81,-6,-32,-127,5,-31,124,-31,20,57,-26,54,0,61,14,-117, 
  /* [19][0][][] */ -69,-31,-41,-72,-89,47,-17,21,27,-40,33,-127,-25,7,-48,-7, 
  /* [20][0][][] */ 13,76,83,-92,78,-7,-65,88,-106,-127,36,-102,-49,113,-29,-37, 
  /* [21][0][][] */ -10,-127,-94,-21,104,28,53,114,-57,-65,-13,48,92,-85,-24,16, 
  /* [22][0][][] */ 41,-19,60,0,2,11,60,8,40,119,41,40,-3,15,127,-3, 
  /* [23][0][][] */ -127,-90,-23,45,57,45,7,23,-4,-3,6,-74,0,64,48,109, 
  /* [24][0][][] */ -1,-11,23,48,2,-106,-10,-54,24,127,-100,85,-44,-46,61,-79, 
  /* [25][0][][] */ 104,-42,96,127,29,0,-27,35,-114,72,70,-44,-25,46,88,-3, 
  /* [26][0][][] */ -18,20,11,38,-56,106,-20,38,-54,-36,-80,32,2,9,46,-127, 
  /* [27][0][][] */ 43,-12,3,-63,-51,-4,-92,15,-117,-19,-88,-59,-71,44,-21,127, 
  /* [28][0][][] */ -89,15,15,-6,16,0,-127,12,7,-56,11,-22,3,-66,-83,-17, 
  /* [29][0][][] */ -39,-127,-37,94,-38,18,126,3,80,58,-115,70,23,-39,-63,86, 
  /* [30][0][][] */ 32,-43,-59,-6,-127,34,59,-19,15,-11,6,-19,-21,53,-11,75, 
  /* [31][0][][] */ -127,-11,9,90,-51,8,-45,5,-39,-57,20,-36,-37,-58,-31,98, 
  /* [32][0][][] */ -127,-71,-105,1,-88,-30,9,-24,124,42,-47,-59,33,36,16,-5, 
  /* [33][0][][] */ -18,5,-103,54,-127,-84,60,-5,-110,8,-50,-71,-17,108,76,83, 
  /* [34][0][][] */ 45,55,16,51,-76,-52,24,11,32,-127,-13,41,-36,-19,37,79, 
  /* [35][0][][] */ 37,-13,-63,-5,-127,9,93,-38,30,47,-15,-21,25,75,37,82, 
  /* [36][0][][] */ -7,-1,-36,57,127,-19,47,60,-81,19,-84,-85,18,-12,-12,17, 
  /* [37][0][][] */ -121,51,-9,-58,43,-91,-55,-33,-4,-23,-11,62,54,-81,4,-127, 
  /* [38][0][][] */ 53,90,39,-43,-91,-60,-127,-74,-43,-52,44,64,-51,-90,76,-4, 
  /* [39][0][][] */ -17,-49,-3,71,20,94,87,-41,-30,50,20,-16,-18,127,20,121, 
  /* [40][0][][] */ 71,43,79,100,-50,-44,-10,29,-73,60,16,6,-60,-18,127,6, 
  /* [41][0][][] */ -23,-15,9,54,-86,127,9,46,-49,26,-113,14,23,33,42,-116, 
  /* [42][0][][] */ 7,-76,34,-6,127,16,51,18,-16,-76,-86,-24,-5,5,-28,24, 
  /* [43][0][][] */ -59,-127,-61,35,117,4,-5,112,-83,-103,-127,-111,126,-14,-72,72, 
  /* [44][0][][] */ -29,-59,-92,-105,25,81,65,15,-19,-127,-67,64,-45,41,27,98, 
  /* [45][0][][] */ 1,-43,-38,6,-127,42,-51,-63,38,-8,43,-27,-14,12,-43,29, 
  /* [46][0][][] */ 35,-96,-20,13,90,-83,-24,80,-2,-34,34,66,-46,-62,58,-127, 
  /* [47][0][][] */ -55,-8,-6,85,-20,-1,27,29,-1,127,79,99,-40,80,1,85, 
  /* [48][0][][] */ 43,-14,-82,-86,29,-71,2,56,44,-78,-3,17,-59,-4,-33,-127, 
  /* [49][0][][] */ 42,29,15,33,-13,-33,51,62,-46,127,-43,30,-35,-27,59,87, 
  /* [50][0][][] */ -4,-6,11,0,-127,-12,-8,-42,54,14,25,45,-27,-64,8,1, 
  /* [51][0][][] */ 7,-9,-3,-127,-11,94,26,-36,22,13,33,-32,69,73,-17,10, 
  /* [52][0][][] */ 28,-20,1,-83,79,-116,-14,-39,30,9,127,-53,34,10,-35,93, 
  /* [53][0][][] */ -49,-53,42,-27,-34,-127,13,-99,-12,101,-95,68,-42,-20,21,-76, 
  /* [54][0][][] */ 64,68,73,-28,-127,-29,-97,-106,-1,19,52,78,-70,-46,84,11, 
  /* [55][0][][] */ 11,5,-34,69,-34,30,41,-10,4,127,20,72,0,7,0,46, 
  /* [56][0][][] */ 17,-114,-64,63,-75,46,-22,65,127,11,38,43,-37,-41,24,61, 
  /* [57][0][][] */ 45,7,101,-83,126,13,-13,-2,101,-42,-7,127,85,-71,119,-61, 
  /* [58][0][][] */ 86,-58,19,-61,39,7,-9,127,52,97,-9,56,38,6,83,-18, 
  /* [59][0][][] */ -51,31,33,-41,5,-93,-1,13,19,18,-126,-123,-127,-74,85,-10, 
  /* [60][0][][] */ 50,-19,16,44,14,-18,12,-66,22,127,-9,71,-6,-25,-11,-26, 
  /* [61][0][][] */ 75,63,20,-12,-71,-127,-16,-70,-70,-7,-44,6,-57,-48,74,73, 
  /* [62][0][][] */ -30,90,-50,33,-84,127,-66,23,-79,15,-46,28,-52,34,69,-106, 
  /* [63][0][][] */ 13,-8,-83,-127,-28,-59,88,0,-26,-114,-21,20,-56,76,33,-35, 
  /* [64][0][][] */ -67,37,-8,-28,32,-65,23,90,-127,-27,-35,-42,-55,85,67,83, 
  /* [65][0][][] */ -71,-22,-42,-11,65,39,-52,-61,-119,-64,17,-16,-127,111,-73,41, 
  /* [66][0][][] */ -25,47,-8,33,-34,127,-24,23,-60,19,-41,33,-30,44,40,-91, 
  /* [67][0][][] */ 8,-12,-48,-26,9,-82,75,-127,-6,24,16,126,-78,-22,-29,-102, 
  /* [68][0][][] */ 4,-127,-26,80,-7,1,39,58,29,24,26,-7,-50,26,-19,-4, 
  /* [69][0][][] */ 5,89,96,-111,68,16,-39,99,38,127,54,104,107,-92,38,-124, 
  /* [70][0][][] */ 43,39,46,-33,86,7,-74,-42,-127,-87,-4,31,-27,72,-95,4, 
  /* [71][0][][] */ -36,-103,23,-58,83,5,53,45,-106,84,-126,-40,24,127,-19,76, 
  /* [72][0][][] */ 18,15,77,14,-67,-28,-127,-67,-7,78,-45,50,21,103,-118,-24, 
  /* [73][0][][] */ 1,-46,-16,-58,34,-127,24,-46,89,98,117,-26,9,-36,-100,118, 
  /* [74][0][][] */ -1,5,-26,84,-79,-7,90,33,75,63,27,115,127,37,-55,14, 
  /* [75][0][][] */ -36,38,-28,31,-43,127,-23,26,-27,30,-37,50,-23,53,14,-72, 
  /* [76][0][][] */ -54,77,-67,52,-89,2,-6,29,62,41,-45,-39,53,-55,-127,33, 
  /* [77][0][][] */ 101,111,-127,121,70,85,65,51,51,8,115,-31,64,36,33,18, 
  /* [78][0][][] */ 9,-51,-3,-59,74,-127,28,-42,52,50,119,-25,6,-23,-55,114, 
  /* [79][0][][] */ -25,70,-1,34,-2,-51,-25,-5,-127,-9,51,6,116,45,-70,-41, 
  /* [80][0][][] */ -83,17,61,8,74,69,-6,-127,-58,40,-71,-53,-15,-118,31,74, 
  /* [81][0][][] */ 94,76,-30,-8,37,-26,77,111,-94,127,-68,-51,-41,16,111,108, 
  /* [82][0][][] */ 32,90,-32,-61,-9,-38,127,-86,26,-3,-61,61,117,-7,84,-16, 
  /* [83][0][][] */ -4,-47,20,42,16,36,-41,-99,71,-32,103,27,36,-71,-59,-127, 
  /* [84][0][][] */ -127,-85,-47,-51,-12,95,70,0,94,73,87,93,46,54,-94,8, 
  /* [85][0][][] */ 127,0,104,-64,63,-12,-26,75,42,103,-57,13,-27,50,111,7, 
  /* [86][0][][] */ -80,68,-37,-10,25,77,12,22,83,36,127,-26,-31,55,-10,-18, 
  /* [87][0][][] */ 13,-59,23,-47,44,-127,31,-41,53,-13,70,-40,36,-51,-44,74, 
  /* [88][0][][] */ -82,52,40,-13,116,-21,34,34,-60,-59,89,-56,74,127,88,-119, 
  /* [89][0][][] */ -33,41,-19,26,-34,127,-16,36,-50,7,-35,16,-12,58,23,-81, 
  /* [90][0][][] */ 55,-81,20,12,122,-5,61,32,-9,-102,-127,-29,-7,-12,-62,30, 
  /* [91][0][][] */ -6,49,-36,-19,-20,-87,-110,32,-70,17,-57,-82,-127,-85,-3,18, 
  /* [92][0][][] */ 42,40,58,26,-127,-66,6,17,-29,31,-8,-17,-41,-73,23,-4, 
  /* [93][0][][] */ -24,-99,-121,47,-50,-37,-3,127,114,61,30,57,-87,50,-32,-32, 
  /* [94][0][][] */ 83,13,127,-32,24,-32,16,43,7,89,-4,64,6,19,118,-6, 
  /* [95][0][][] */ -69,-77,-30,5,127,-26,36,78,-50,-27,-117,-55,28,11,-54,41, 
};
const TfArray<4, int> tensor_dimension26 = { 4, { 96,1,1,16 } };
const TfArray<96, float> quant26_scale = { 96, { 0.0046309293247759342, 0.0017845508409664035, 0.0065032672137022018, 0.0047623994760215282, 0.0023763962090015411, 0.0011982088908553123, 0.0046080215834081173, 0.0021033040247857571, 0.0011332940775901079, 0.0030814411584287882, 0.00091392517788335681, 0.0020474395714700222, 0.0028226654976606369, 0.0070738955400884151, 0.002178726252168417, 0.0023628813214600086, 0.0043738172389566898, 0.0030212788842618465, 0.0025956104509532452, 0.0012737413635477424, 0.0042750071734189987, 0.0016801991732791066, 0.0035467569250613451, 0.0029131651390343904, 0.0015901576261967421, 0.0027766113635152578, 0.0036076020915061235, 0.0048141912557184696, 0.0022443023044615984, 0.0033165337517857552, 0.0026986186858266592, 0.0020054408814758062, 0.0036249614786356688, 0.0015030242502689362, 0.0025895014405250549, 0.0028967957478016615, 0.0028248452581465244, 0.0037148070987313986, 0.0023360289633274078, 0.0022834790870547295, 0.0010309817735105753, 0.003495949087664485, 0.0028489991091191769, 0.001943733892403543, 0.0025143446400761604, 0.0018796260701492429, 0.0017974376678466797, 0.0016723951557651162, 0.0047948895953595638, 0.0044193938374519348, 0.0038414280861616135, 0.0028685219585895538, 0.0034562449436634779, 0.0024472661316394806, 0.0015690161380916834, 0.0056178332306444645, 0.0024515753611922264, 0.00097421417012810707, 0.0024211385753005743, 0.0030946545302867889, 0.0031357542611658573, 0.001492896699346602, 0.0023176316171884537, 0.0040465071797370911, 0.00096259952988475561, 0.0010200014803558588, 0.0038295628037303686, 0.0034782374277710915, 0.0025149404536932707, 0.0016464373329654336, 0.0038063609972596169, 0.0020853118039667606, 0.0025300674606114626, 0.0025726589374244213, 0.0040827458724379539, 0.0033467398025095463, 0.003806782653555274, 0.0013814227422699332, 0.0029654947575181723, 0.0030242383945733309, 0.0026608165353536606, 0.0030538456048816442, 0.0023217308335006237, 0.0013749548234045506, 0.0025403148028999567, 0.0013412790140137076, 0.001817217911593616, 0.0037967762909829617, 0.0043620993383228779, 0.0036483174189925194, 0.0025758894626051188, 0.0018345295684412122, 0.0032999345567077398, 0.0021121930330991745, 0.0018700251821428537, 0.0021255481988191605, } };
const TfArray<96, int> quant26_zero = { 96, { 0,0,0,0,0,0,0,0,0,0,0,0,0,0,0,0,0,0,0,0,0,0,0,0,0,0,0,0,0,0,0,0,0,0,0,0,0,0,0,0,0,0,0,0,0,0,0,0,0,0,0,0,0,0,0,0,0,0,0,0,0,0,0,0,0,0,0,0,0,0,0,0,0,0,0,0,0,0,0,0,0,0,0,0,0,0,0,0,0,0,0,0,0,0,0,0 } };
const TfLiteAffineQuantization quant26 = { (TfLiteFloatArray*)&quant26_scale, (TfLiteIntArray*)&quant26_zero, 0 };
const ALIGN(16) int32_t tensor_data27[96] = { 1177, 8189, 280, 1689, 5187, 14331, 136, 3257, 15223, -1256, 18498, 5007, 2167, 632, 5057, 442, 2272, 4031, -487, 13749, 1257, 9721, -1451, 1522, -9211, 1671, 2804, 1534, 7655, 1476, 4085, 5647, 1920, 11044, 4070, 4092, 4144, 2199, 3625, 4431, 18503, 1409, 2708, 2130, 2554, 8762, 7898, 9199, 959, -979, 2262, 4875, 2767, -2994, 9671, 124, 2900, 17634, 1711, 1642, 2831, 11707, 5697, -38, 20530, 18085, 2312, 3249, 6243, 5946, 2666, 2121, -4621, 5048, 1689, 3629, 171, 12301, 3955, 5155, 3381, 852, 3809, 13445, -261, 10619, 7692, 2076, -760, 3064, 1605, 8797, 3098, 4201, 5785, 5861, };
const TfArray<1, int> tensor_dimension27 = { 1, { 96 } };
const TfArray<96, float> quant27_scale = { 96, { 0.00023643059830646962, 9.11096649360843e-05, 0.00033202220220118761, 0.0002431427565170452, 0.00012132613483117893, 6.1174163420218974e-05, 0.00023526104632765055, 0.00010738350101746619, 5.7859961088979617e-05, 0.00015732197789475322, 4.6660152293043211e-05, 0.00010453136201249436, 0.0001441102649550885, 0.00036115542752668262, 0.0001112341633415781, 0.00012063614121871069, 0.00022330382489599288, 0.00015425041783601046, 0.00013251804921310395, 6.5030450059566647e-05, 0.00021825909789185971, 8.5782019596081227e-05, 0.00018107851792592555, 0.00014873070176690817, 8.1184982263948768e-05, 0.00014175899559631944, 0.00018418495892547071, 0.00024578697048127651, 0.00011458212247816846, 0.00016932455764617771, 0.0001377770968247205, 0.00010238713002763689, 0.00018507122877053916, 7.6736418122891337e-05, 0.00013220615801401436, 0.00014789497072342783, 0.00014422155800275505, 0.00018965826893690974, 0.00011926519800908864, 0.00011658228322630748, 5.2636438340414315e-05, 0.00017848455172497779, 0.00014545473095495254, 9.923670586431399e-05, 0.00012836905079893768, 9.5963696367107332e-05, 9.1767593403346837e-05, 8.5383588157128543e-05, 0.00024480154388584197, 0.00022563071979675442, 0.00019612286996562034, 0.0001464514498366043, 0.00017645746993366629, 0.00012494437396526337, 8.0105608503799886e-05, 0.00028681664844043553, 0.00012516438437160105, 4.9738187954062596e-05, 0.00012361044355202466, 0.00015799657558090985, 0.00016009491810109466, 7.6219359470997006e-05, 0.00011832593008875847, 0.00020659310393966734, 4.9145204684464261e-05, 5.2075843996135518e-05, 0.00019551708828657866, 0.00017758028116077185, 0.00012839946430176497, 8.4058323409408331e-05, 0.00019433251873124391, 0.00010646491864463314, 0.00012917177809868008, 0.00013134627079125494, 0.00020844326354563236, 0.00017086671141441911, 0.00019435405556578189, 7.0528090873267502e-05, 0.00015140237519517541, 0.00015440151037182659, 0.00013584711996372789, 0.0001559130905661732, 0.00011853521573357284, 7.0197871536947787e-05, 0.00012969494855497032, 6.8478562752716243e-05, 9.2777467216365039e-05, 0.00019384318147785962, 0.00022270556655712426, 0.00018626365636009723, 0.00013151120219845325, 9.3661314167547971e-05, 0.00016847708320710808, 0.00010783733159769326, 9.5473529654555023e-05, 0.00010851917613763362, } };
const TfArray<96, int> quant27_zero = { 96, { 0,0,0,0,0,0,0,0,0,0,0,0,0,0,0,0,0,0,0,0,0,0,0,0,0,0,0,0,0,0,0,0,0,0,0,0,0,0,0,0,0,0,0,0,0,0,0,0,0,0,0,0,0,0,0,0,0,0,0,0,0,0,0,0,0,0,0,0,0,0,0,0,0,0,0,0,0,0,0,0,0,0,0,0,0,0,0,0,0,0,0,0,0,0,0,0 } };
const TfLiteAffineQuantization quant27 = { (TfLiteFloatArray*)&quant27_scale, (TfLiteIntArray*)&quant27_zero, 0 };
const ALIGN(16) int8_t tensor_data28[1*3*3*96] = { 
  /* [0][0][][] */ -29,-1,16,-34,87,-6,27,-23,-7,9,-13,-42,-38,2,1,-21,-19,3,-2,-22,-3,25,1,47,-9,16,-23,3,22,-7,17,4,-21,4,-5,-27,-11,-73,-43,12,-2,5,24,-11,-27,31,-78,-14,-20,5,3,43,-64,11,21,-21,-17,-13,7,-9,-10,-17,-2,-100,-22,-31,-43,-44,-18,31,-9,-1,29,-1,8,-8,-25,18,127,-17,-109,21,-119,-21,-19,-18,14,18,-17,-11,17,-46,-4,20,-13,5, -1,46,49,-55,-40,-7,127,-60,-4,2,-42,12,-82,7,-59,68,-19,73,85,-40,7,127,58,127,29,0,48,85,127,38,127,-28,-113,-15,-81,-23,-13,-111,127,-35,-37,-106,-22,-36,67,-37,-21,-5,44,-7,20,127,-89,44,-109,-14,-112,-10,-5,32,-15,-127,-127,-97,-64,0,-6,-119,-17,19,-98,124,-127,-10,10,-27,-127,-60,-1,-87,-108,17,4,-64,127,79,-59,25,-127,3,42,-23,3,114,-56,-74, -4,15,2,-25,57,-4,63,-33,-22,22,-11,20,-19,1,0,-27,-14,-5,-31,-31,-6,5,-4,37,-8,-4,0,-9,13,-1,12,9,-5,3,-19,61,-10,-70,-20,6,-6,19,20,-9,-17,-35,-65,-22,-6,-11,2,32,14,6,-1,-23,48,-21,7,-19,-7,-3,-61,-27,-36,-45,127,-22,-6,21,7,6,17,5,12,12,-47,39,-39,-8,-127,9,-127,-16,22,-25,6,-19,-58,-44,15,49,-5,24,-16,14, 
  /* [0][1][][] */ -103,3,54,-60,28,91,-49,-11,-5,-16,-27,-36,-127,17,19,61,-26,33,106,16,29,-27,117,-25,36,30,89,16,-11,0,-6,-25,-127,-13,47,-30,-13,-127,-60,-127,-11,-6,69,-25,-78,127,-102,-72,75,55,20,-41,-90,68,65,-37,34,-33,37,-6,10,-9,99,-96,-42,0,-21,-52,0,2,-127,18,79,127,11,-68,-107,-78,-57,-46,-90,2,-43,-68,34,28,-98,72,-57,127,93,-92,127,-10,-33,-9, 64,127,127,127,-127,-127,78,-57,127,127,-89,-69,-119,127,-23,127,127,-127,127,127,127,-97,127,-123,-127,-127,127,127,-114,127,-11,127,-110,127,127,-91,127,39,-3,9,127,1,-127,-81,127,-25,127,127,127,-127,127,-106,101,127,-127,127,-127,127,-127,127,-112,117,101,-127,127,127,-11,127,-93,-127,-14,-127,9,112,127,63,21,-127,96,-127,51,127,99,127,85,76,-127,127,-65,48,4,-8,-81,-33,-127,-22, -127,-17,56,-76,15,53,-53,12,-36,-21,-3,127,-108,10,22,68,-24,44,70,4,18,-27,80,-15,35,6,48,12,-15,-12,20,-14,-77,-29,62,127,-6,-69,-68,-87,-28,-36,29,-18,-71,-72,-97,-106,73,53,0,-17,127,15,97,-56,110,-31,49,-38,0,-32,-123,-41,-82,-26,-48,-65,-12,8,-104,4,40,-89,9,127,-88,-62,-48,-8,-87,-7,-81,-81,0,34,-82,60,-54,-85,127,127,-53,-32,-48,-1, 
  /* [0][2][][] */ -29,-38,-14,-31,26,8,-27,16,-10,10,33,-35,35,4,3,-26,-8,-10,-54,-26,1,-7,-3,-35,1,16,5,16,-7,-10,-36,0,24,1,-2,-31,-9,-38,-18,-17,-25,-9,24,34,13,6,-86,-2,-25,-5,-4,-26,-14,-25,27,-13,20,-21,6,-13,1,18,-7,6,-45,-31,108,29,32,27,-64,4,-2,1,-19,-28,-12,26,-35,-25,-23,13,-73,-20,-33,-5,29,-4,-11,6,-18,-28,-7,-21,-19,-2, -37,-44,24,-99,-49,12,22,127,-51,68,127,-18,-42,10,127,105,-9,-42,84,-55,-14,-37,96,16,19,4,51,23,-16,9,-96,-52,-97,-27,-93,-5,-88,-99,50,-67,-34,-127,-37,127,19,-27,-38,3,50,-13,4,-15,54,45,-64,-50,-50,-52,39,-46,127,22,91,18,-109,-53,-24,-37,127,36,-99,24,16,-30,13,-15,-27,-28,-2,-2,-114,-15,-97,-52,22,-127,-18,24,-31,-2,30,2,14,-127,-74,127, -33,14,4,-15,31,-2,-20,13,-20,2,13,39,38,-5,3,-20,-3,9,-30,-31,0,-4,-12,-16,0,14,11,6,-6,-4,-43,2,14,3,1,0,-10,-62,-13,-4,-37,-16,11,28,10,-10,-84,5,-7,-12,6,-18,-5,-22,26,-19,75,-13,12,-23,5,13,-22,9,-38,-34,-30,24,30,19,-60,-4,-39,-45,-16,3,-39,17,89,-33,-26,7,-47,-2,-40,3,35,12,-24,-2,-31,10,-8,-27,5,2, 
};
const TfArray<4, int> tensor_dimension28 = { 4, { 1,3,3,96 } };
const TfArray<96, float> quant28_scale = { 96, { 0.0048884600400924683, 0.010948970913887024, 0.0069452901370823383, 0.0066961809061467648, 0.010899577289819717, 0.020801393315196037, 0.0059233135543763638, 0.0098331542685627937, 0.016751313582062721, 0.012752397917211056, 0.012085274793207645, 0.0077896052971482277, 0.0038180642295628786, 0.0083838524296879768, 0.0097064534202218056, 0.0060481121763586998, 0.012268302962183952, 0.013065233826637268, 0.0055735353380441666, 0.017347132787108421, 0.01032553892582655, 0.012767224572598934, 0.0046192961744964123, 0.0096856458112597466, 0.079996787011623383, 0.0085055464878678322, 0.0090560773387551308, 0.0063011548481881618, 0.016069008037447929, 0.0084705008193850517, 0.0082549061626195908, 0.015132847242057323, 0.0025661524850875139, 0.019156781956553459, 0.0079830465838313103, 0.0084426673129200935, 0.015428757295012474, 0.0037891617976129055, 0.010593158192932606, 0.0065013007260859013, 0.024854876101016998, 0.0081526553258299828, 0.012132010422646999, 0.0077485460788011551, 0.007065135519951582, 0.01254863478243351, 0.0053096632473170757, 0.012733914889395237, 0.0066163474693894386, 0.01779349148273468, 0.010750475339591503, 0.0094739850610494614, 0.0068302066065371037, 0.010385993868112564, 0.010825085453689098, 0.0098556140437722206, 0.0064108241349458694, 0.017414102330803871, 0.019682930782437325, 0.013088533654808998, 0.011831996031105518, 0.014214233495295048, 0.007129330188035965, 0.0046742097474634647, 0.0099313687533140182, 0.017787227407097816, 0.0050051305443048477, 0.0054490827023983002, 0.01019548624753952, 0.015148656442761421, 0.0042224167846143246, 0.012734806165099144, 0.023331867530941963, 0.00817092414945364, 0.0067475917749106884, 0.0091135306283831596, 0.0028905509971082211, 0.0079715056344866753, 0.0055017410777509212, 0.0066780643537640572, 0.003371737664565444, 0.010343481786549091, 0.0037336659152060747, 0.014000650495290756, 0.0057268585078418255, 0.013577040284872055, 0.0058323130942881107, 0.0097134867683053017, 0.005488155409693718, 0.0084223710000514984, 0.0047752577811479568, 0.0096304574981331825, 0.012206538580358028, 0.0082318615168333054, 0.0044443490915000439, 0.013116762973368168, } };
const TfArray<96, int> quant28_zero = { 96, { 0,0,0,0,0,0,0,0,0,0,0,0,0,0,0,0,0,0,0,0,0,0,0,0,0,0,0,0,0,0,0,0,0,0,0,0,0,0,0,0,0,0,0,0,0,0,0,0,0,0,0,0,0,0,0,0,0,0,0,0,0,0,0,0,0,0,0,0,0,0,0,0,0,0,0,0,0,0,0,0,0,0,0,0,0,0,0,0,0,0,0,0,0,0,0,0 } };
const TfLiteAffineQuantization quant28 = { (TfLiteFloatArray*)&quant28_scale, (TfLiteIntArray*)&quant28_zero, 3 };
const ALIGN(16) int32_t tensor_data29[96] = { 8960, -2716, -6253, 8146, 676, 139, 1480, -483, 2041, -3775, 862, -1623, 10858, -2828, -3686, -7210, 455, 784, -9304, 1374, -3081, 1409, -5737, 140, 74, 4798, -11685, -6224, 215, -2626, -121, -281, 18107, -400, -820, -760, 627, 12685, 2219, 8923, 701, 5446, 1031, 2517, 1208, 1271, 10628, 1528, -7750, 583, -4834, -62, -784, -4303, 1817, 3508, 360, 3024, 228, 613, 5, 897, 711, 10739, 12780, 2295, 13658, 9934, -1965, -1161, 13232, -1707, 31, 774, -3534, 140, 18863, 9123, 9864, 12545, 13876, -2648, 9780, 7937, -439, -2114, 10476, -8008, 8928, 733, -7556, -583, 130, 2772, 15341, -2366, };
const TfArray<1, int> tensor_dimension29 = { 1, { 96 } };
const TfArray<96, float> quant29_scale = { 96, { 0.00011502259440021589, 0.00025762285804376006, 0.00016341859009116888, 0.00015755719505250454, 0.00025646065478213131, 0.00048944453010335565, 0.00013937208859715611, 0.00023136833624448627, 0.00039414854836650193, 0.00030005641747266054, 0.0002843594120349735, 0.00018328483565710485, 8.9836808911059052e-05, 0.00019726711616385728, 0.00022838714357931167, 0.00014230851957108825, 0.0002886659640353173, 0.00030741727096028626, 0.00013114200555719435, 0.0004081678343936801, 0.00024295385810546577, 0.00030040528508834541, 0.0001086893244064413, 0.00022789755894336849, 0.0018822774291038513, 0.00020013051107525826, 0.00021308417490217835, 0.00014826246479060501, 0.00037809432251378894, 0.00019930591224692762, 0.00019423308549448848, 0.00035606700112111866, 6.0380058130249381e-05, 0.0004507478151936084, 0.00018783639825414866, 0.00019865100330207497, 0.00036302959779277444, 8.9156746980734169e-05, 0.00024925079196691513, 0.00015297178470063955, 0.00058482063468545675, 0.00019182718824595213, 0.00028545907116495073, 0.00018231873400509357, 0.00016623848932795227, 0.00029526199796237051, 0.00012493325630202889, 0.00029962151893414557, 0.0001556787610752508, 0.0004186703881714493, 0.00025295236264355481, 0.00022291729692369699, 0.00016071074060164392, 0.00024437633692286909, 0.00025470790569670498, 0.00023189680359791964, 0.00015084292681422085, 0.00040974360308609903, 0.00046312779886648059, 0.00030796549981459975, 0.00027839990798383951, 0.00033445254666730762, 0.00016774894902482629, 0.00010998141078744084, 0.0002336792676942423, 0.0004185230063740164, 0.00011776777682825923, 0.00012821370910387486, 0.00023989379405975342, 0.00035643897717818618, 9.9350982054602355e-05, 0.00029964250279590487, 0.00054898514645174146, 0.00019225703726988286, 0.00015876686666160822, 0.00021443601872306317, 6.8012966949027032e-05, 0.00018756484496407211, 0.00012945273192599416, 0.00015713092579971999, 7.9335004556924105e-05, 0.00024337605282198638, 8.7850967247504741e-05, 0.00032942707184702158, 0.00013474961451720446, 0.00031945976661518216, 0.00013723090523853898, 0.00022855262795928866, 0.00012913307000417262, 0.00019817343854811043, 0.00011235901183681563, 0.00022659900423604995, 0.0002872126642614603, 0.0001936908665811643, 0.00010457292228238657, 0.00030862973653711379, } };
const TfArray<96, int> quant29_zero = { 96, { 0,0,0,0,0,0,0,0,0,0,0,0,0,0,0,0,0,0,0,0,0,0,0,0,0,0,0,0,0,0,0,0,0,0,0,0,0,0,0,0,0,0,0,0,0,0,0,0,0,0,0,0,0,0,0,0,0,0,0,0,0,0,0,0,0,0,0,0,0,0,0,0,0,0,0,0,0,0,0,0,0,0,0,0,0,0,0,0,0,0,0,0,0,0,0,0 } };
const TfLiteAffineQuantization quant29 = { (TfLiteFloatArray*)&quant29_scale, (TfLiteIntArray*)&quant29_zero, 0 };
const ALIGN(16) int8_t tensor_data30[16*1*1*96] = { 
  /* [0][0][][] */ 20,28,26,10,-24,-72,-10,-10,-16,-67,22,0,51,-54,53,29,-87,-31,35,19,77,30,-60,17,-6,62,127,71,10,72,45,-40,9,-1,-10,-12,15,15,-19,-2,111,18,20,-2,-11,-7,-4,-42,20,-22,88,-13,-52,-4,44,23,-14,-44,15,18,-1,38,-52,-1,25,8,50,33,9,-27,27,25,10,41,7,34,57,-30,39,33,-2,45,26,36,-43,13,-15,68,26,16,-81,-4,25,17,103,65, 
  /* [1][0][][] */ 22,40,-57,-12,1,-50,105,-80,-70,-37,-71,-58,-9,-51,-16,-63,-19,-31,-38,-30,-7,-79,111,-36,1,21,-2,68,-62,-1,-42,18,-38,14,13,0,-16,43,-63,100,19,14,-4,-57,64,-63,-15,36,-73,-5,38,-108,-41,47,61,46,28,16,-70,8,-59,-5,-17,-23,25,19,106,-2,-50,-127,2,16,28,60,-32,25,-59,-23,105,-36,40,-17,46,-71,-32,-61,-17,6,-18,-45,21,-11,74,-69,-33,46, 
  /* [2][0][][] */ 13,-17,31,-21,50,49,-51,19,-49,37,18,-15,33,1,23,27,24,-26,-127,8,-25,-44,-15,28,-1,-8,-42,22,-44,-17,-12,72,-10,-29,-9,14,-50,23,-18,-20,64,16,9,52,6,53,-5,-20,-91,16,-18,13,-11,44,19,-56,26,19,50,32,-11,-7,-13,62,46,2,-42,-2,-4,1,-17,-30,29,50,26,66,-50,-9,-27,-23,38,37,54,-11,-4,-42,-18,-41,-6,-31,-6,84,3,7,89,-29, 
  /* [3][0][][] */ 39,-35,-4,-127,-18,-31,114,-27,33,121,-68,-7,9,-12,-22,61,50,47,-19,31,-52,32,31,22,-44,75,61,-1,-46,-5,-65,61,8,-13,26,-22,-16,-54,-37,53,15,10,-15,42,60,-48,-7,24,38,-13,27,-46,113,38,40,-5,-4,-21,0,-35,-20,46,84,9,-19,-16,118,-26,-30,-23,-45,34,22,-66,5,-67,23,-47,126,14,-6,-50,-35,-36,-21,-39,69,85,-40,49,-48,19,17,-63,-19,49, 
  /* [4][0][][] */ -21,77,45,3,-22,7,-17,-13,17,-35,0,-8,21,43,-27,20,-16,-44,-13,-70,27,-18,-63,34,-29,-33,-15,25,-48,127,-47,-15,8,-36,2,-34,51,36,-45,2,22,4,21,-29,-42,0,48,-30,19,-13,-58,-12,-66,16,57,18,1,57,-15,23,-31,-61,-15,11,60,27,-56,-1,4,-14,14,-56,-6,66,51,68,-33,18,-53,52,20,67,27,-56,55,-64,-35,-59,-36,-50,-51,-2,7,14,39,-18, 
  /* [5][0][][] */ -1,-14,59,-28,-26,-19,-11,1,46,13,-11,3,-20,-24,24,-20,-20,5,-51,-26,-22,24,-18,25,20,-47,79,-9,-3,46,13,83,-4,-79,21,13,-53,-28,-43,-7,-45,1,-19,26,4,23,-76,19,-27,23,58,-16,32,-78,10,17,-28,-58,9,-33,50,33,32,58,-30,19,102,-18,-5,-32,21,23,-2,38,41,17,-5,-12,127,56,-23,-12,-31,37,58,68,2,107,9,-34,-8,24,10,-2,-27,31, 
  /* [6][0][][] */ 34,-64,82,5,-55,123,-70,-91,-20,-80,-81,78,14,16,-39,86,3,39,23,-16,-95,-42,-84,-63,-1,-62,-9,65,-127,46,-17,-32,47,101,-20,-9,-20,-26,33,-38,-43,36,58,-22,9,48,-90,-24,38,12,-79,-111,76,15,-36,-12,29,-20,27,-13,-10,-42,39,8,58,-79,-74,-59,-93,31,-25,-71,-31,-86,15,-95,91,6,-78,42,-49,77,18,-89,67,-45,-24,4,-72,70,-83,94,42,-45,65,-88, 
  /* [7][0][][] */ -12,-4,-53,58,-28,-6,54,-7,-96,9,76,63,3,-55,-8,-25,-14,-20,6,14,-59,-11,-28,-24,64,39,4,71,-16,38,32,23,-45,-127,39,100,-6,18,-55,0,10,-11,6,-77,32,63,70,76,-19,57,-58,14,31,-39,60,-47,-11,49,-76,-8,47,21,18,-41,83,-45,111,2,-40,-30,78,23,-7,-37,-83,-33,40,-41,102,-23,-1,-3,-61,-20,47,22,-70,48,-17,22,14,52,67,-23,83,-4, 
  /* [8][0][][] */ -14,-56,4,11,-11,-4,16,-7,-15,-8,47,33,9,23,-31,-10,68,3,9,-13,-15,-73,-36,-27,-22,-31,65,5,-15,41,7,-27,-18,-2,3,4,-37,-21,19,-19,-12,37,26,-40,12,-24,22,-9,37,-7,43,8,-5,5,-39,0,-21,96,-50,-8,-18,-74,-64,-7,-85,-35,-14,11,-3,12,41,-26,-26,-127,36,-101,7,13,-53,12,-24,-7,6,46,56,-59,-37,47,-33,79,8,-24,-47,-3,0,-59, 
  /* [9][0][][] */ -26,-32,-22,24,0,22,15,32,-43,3,57,62,-30,53,27,-49,-18,24,-22,-34,2,34,-9,10,-29,24,1,25,22,-10,27,-5,-19,-10,11,48,-26,-5,25,2,-7,-29,17,11,9,43,0,24,-37,11,-3,35,127,15,-5,-2,9,-9,26,20,-34,-6,76,1,14,14,57,0,37,-8,-13,23,4,-125,-38,-119,-37,-6,33,-1,2,22,8,-38,42,12,-53,-10,8,100,29,40,55,32,-3,35, 
  /* [10][0][][] */ 17,34,5,3,-8,17,-36,-21,56,7,-37,16,14,6,-4,-52,-26,-3,15,-7,26,-17,-20,-34,11,-15,-92,40,-17,44,0,11,14,21,-17,3,20,3,9,4,33,-8,54,-46,-29,-5,18,28,23,-2,8,-18,-21,-13,-8,27,-13,4,-17,-7,-16,-39,-9,4,-9,-18,-83,-30,-51,-12,36,-14,-21,23,28,12,43,-14,-84,4,-13,25,-1,-7,1,6,-62,-127,-23,21,7,10,46,-33,18,21, 
  /* [11][0][][] */ 12,-44,-12,15,-48,29,12,2,67,-23,-27,-42,26,14,15,-14,-27,47,18,-71,10,23,11,-41,35,16,53,2,29,-65,-21,18,13,103,-104,10,28,-7,70,12,-56,52,-24,10,-46,3,-7,-3,54,-23,-29,-8,-12,14,-80,88,-23,5,-11,-25,17,-7,-15,-78,-15,-50,-127,-78,2,-33,-95,22,48,12,-13,-9,30,60,-117,-47,-16,-5,-11,-7,-35,-8,58,73,17,-44,1,0,-35,18,86,24, 
  /* [12][0][][] */ 23,28,-25,-34,1,-27,2,39,63,-39,29,6,2,-11,-6,10,4,-41,-24,25,10,63,9,55,-41,-42,-127,-11,71,-25,24,-3,-13,-72,68,-1,18,-12,-8,12,4,-56,17,48,44,1,26,-20,-81,7,-48,92,92,-20,39,-75,7,24,-34,-28,22,62,92,17,-6,-11,31,34,114,24,28,33,5,-13,-9,1,-33,-62,47,-62,30,-47,29,-34,12,7,-1,-106,-5,46,-38,36,15,78,12,52, 
  /* [13][0][][] */ -10,14,-60,22,23,21,-7,11,34,71,-34,58,-46,-27,63,-54,16,42,61,35,-33,-46,-7,25,31,48,-20,22,-1,36,54,-20,-12,69,-4,44,2,-26,-50,-57,16,-9,23,23,48,53,-21,40,-50,41,8,0,-5,-45,75,41,6,-42,-14,-10,26,34,23,-22,21,91,127,54,19,-2,-53,-15,38,52,-83,56,19,-77,126,-35,-9,-44,28,19,39,51,-41,-27,-12,-17,7,58,44,20,68,64, 
  /* [14][0][][] */ -4,56,41,17,-70,-44,10,39,-72,-27,78,21,-80,0,76,-28,-50,33,-58,41,-32,25,-94,21,-63,2,-47,-117,14,-1,26,80,-54,28,1,-13,-43,-69,-11,-50,44,-34,53,-6,-20,57,-80,16,-26,-34,96,23,-9,28,-34,38,-64,35,2,44,50,74,-3,62,30,-42,-11,-61,37,57,82,31,-58,50,17,24,31,-15,32,36,-62,115,2,-127,99,-11,-15,15,-96,-11,-13,8,-32,29,49,45, 
  /* [15][0][][] */ 66,-33,4,38,46,3,-19,-12,20,40,-64,-19,66,60,4,-13,1,-2,-79,43,-6,-37,17,14,69,-37,73,13,46,-26,-35,65,59,42,-3,-72,72,70,74,59,84,37,-31,-2,-43,-120,46,-20,-23,-27,-20,-4,-10,-40,-39,54,-7,10,-20,16,-1,-60,-39,23,33,46,-67,31,-18,-37,-14,-15,2,-127,-39,-110,-23,21,-115,17,79,-38,51,26,-63,-9,-1,-29,32,90,4,-74,-35,-39,27,-43, 
};
const TfArray<4, int> tensor_dimension30 = { 4, { 16,1,1,96 } };
const TfArray<16, float> quant30_scale = { 16, { 0.0047896350733935833, 0.0024989387020468712, 0.0030805340502411127, 0.0025636050850152969, 0.0038722173776477575, 0.0054907123558223248, 0.0024622997734695673, 0.0028227544389665127, 0.0050857369787991047, 0.0042234589345753193, 0.0048255976289510727, 0.0031576245091855526, 0.0031601190567016602, 0.0034502099733799696, 0.0031990264542400837, 0.0032372558489441872, } };
const TfArray<16, int> quant30_zero = { 16, { 0,0,0,0,0,0,0,0,0,0,0,0,0,0,0,0 } };
const TfLiteAffineQuantization quant30 = { (TfLiteFloatArray*)&quant30_scale, (TfLiteIntArray*)&quant30_zero, 0 };
const ALIGN(16) int32_t tensor_data31[16] = { -28190, -1105, -344, -21103, 7966, -19402, 21547, -15968, 14372, -9610, 14861, 15436, -8738, -35023, -4286, 8906, };
const TfArray<1, int> tensor_dimension31 = { 1, { 16 } };
const TfArray<16, float> quant31_scale = { 16, { 0.00011269730021012947, 5.8798559621209279e-05, 7.2483155236113816e-05, 6.0320122429402545e-05, 9.1110996436327696e-05, 0.00012919322762172669, 5.7936467783292755e-05, 6.6417749621905386e-05, 0.00011966440069954842, 9.9375509307719767e-05, 0.00011354347225278616, 7.4297051469329745e-05, 7.4355746619403362e-05, 8.1181409768760204e-05, 7.5271214882377535e-05, 7.6170726970303804e-05, } };
const TfArray<16, int> quant31_zero = { 16, { 0,0,0,0,0,0,0,0,0,0,0,0,0,0,0,0 } };
const TfLiteAffineQuantization quant31 = { (TfLiteFloatArray*)&quant31_scale, (TfLiteIntArray*)&quant31_zero, 0 };
const ALIGN(16) int8_t tensor_data32[96*1*1*16] = { 
  /* [0][0][][] */ -48,36,-14,-18,-32,-69,-70,-40,74,-48,54,-46,67,-116,10,-127, 
  /* [1][0][][] */ -82,63,-110,-79,-82,45,4,69,-25,11,82,-33,48,127,27,46, 
  /* [2][0][][] */ -65,-3,-82,-10,-38,-83,18,-52,-80,101,127,19,28,34,-61,122, 
  /* [3][0][][] */ -58,-72,4,-43,-94,-1,-57,-127,-10,11,47,-64,-71,-43,-117,-42, 
  /* [4][0][][] */ 83,-1,-29,51,-51,2,-127,34,27,78,-8,43,17,4,-43,-85, 
  /* [5][0][][] */ -122,76,-119,-38,69,-50,-18,-83,111,-46,19,-55,14,-127,-122,-123, 
  /* [6][0][][] */ -15,-47,-47,16,-92,56,46,-40,6,-58,127,-24,-31,-18,-119,17, 
  /* [7][0][][] */ -31,95,127,-73,45,80,-8,-61,43,63,-96,-29,57,-2,22,77, 
  /* [8][0][][] */ -57,17,42,-2,66,12,102,127,-78,-13,-57,-84,45,105,-75,-67, 
  /* [9][0][][] */ 25,47,86,26,-91,-39,-108,-95,56,5,127,38,-50,-95,39,-28, 
  /* [10][0][][] */ -16,-125,11,-65,-127,56,39,24,-19,-59,0,38,-18,56,-102,44, 
  /* [11][0][][] */ 101,-50,3,82,-97,-43,47,-6,100,127,-39,63,27,-72,-28,90, 
  /* [12][0][][] */ -56,-83,127,4,70,-13,28,57,71,-16,74,58,-12,26,-79,30, 
  /* [13][0][][] */ 5,-32,13,27,14,25,127,38,-105,14,14,7,-20,116,87,-71, 
  /* [14][0][][] */ 127,-124,123,10,60,73,126,66,121,78,97,30,81,-64,32,-45, 
  /* [15][0][][] */ -31,105,37,-41,47,103,-81,80,-51,-17,-42,-11,-38,127,-33,-50, 
  /* [16][0][][] */ -33,62,104,-35,20,95,-10,-8,1,12,-14,35,86,6,83,127, 
  /* [17][0][][] */ -13,81,52,-127,5,-50,13,-84,-52,42,20,63,-72,-14,77,-22, 
  /* [18][0][][] */ -62,-5,-112,-114,96,91,-34,-60,49,99,127,67,-19,110,-58,8, 
  /* [19][0][][] */ 63,127,62,92,39,-24,5,1,-19,124,34,87,71,75,-65,40, 
  /* [20][0][][] */ 84,9,-12,85,-70,3,-25,59,-39,-52,-127,-50,89,-30,27,-15, 
  /* [21][0][][] */ -69,-69,-20,127,-9,23,-112,68,12,-6,2,15,-27,28,-53,4, 
  /* [22][0][][] */ 6,33,-106,-46,127,27,-39,76,81,86,53,75,-23,45,1,38, 
  /* [23][0][][] */ -53,55,-38,11,4,77,95,78,-17,127,-26,-32,13,36,-35,-33, 
  /* [24][0][][] */ 30,-63,27,13,127,57,62,-24,40,12,38,30,-60,43,-2,-26, 
  /* [25][0][][] */ 116,-54,78,21,-2,-20,-55,99,127,-30,-30,7,114,-54,110,56, 
  /* [26][0][][] */ 68,52,122,92,79,10,-52,-34,-13,88,-4,127,38,-50,44,-56, 
  /* [27][0][][] */ -25,20,-54,23,3,127,-8,-82,29,-54,79,18,47,-38,123,83, 
  /* [28][0][][] */ -41,26,-80,-127,32,-70,10,-59,-97,102,-60,37,-19,23,-29,82, 
  /* [29][0][][] */ 103,94,-79,30,37,95,-47,-16,57,43,-1,55,-127,-1,-21,71, 
  /* [30][0][][] */ -29,112,-126,-102,89,-59,7,3,-73,52,-73,-10,5,71,-2,127, 
  /* [31][0][][] */ 26,-99,45,46,32,-53,-47,15,-16,-8,39,-25,-73,41,28,127, 
  /* [32][0][][] */ -60,66,6,41,-127,45,-2,73,26,-125,37,-67,31,29,45,37, 
  /* [33][0][][] */ -62,-4,52,85,-10,22,-48,14,-42,-46,23,-12,-13,-1,18,127, 
  /* [34][0][][] */ -23,8,-83,-85,72,-21,-17,86,28,-4,-15,-19,-49,-29,-46,127, 
  /* [35][0][][] */ 62,8,17,-14,-6,9,-77,-14,-19,-127,-35,1,-10,-30,39,-18, 
  /* [36][0][][] */ -10,23,-111,-20,43,127,-17,73,-39,22,72,22,37,53,-94,54, 
  /* [37][0][][] */ 64,55,57,-49,56,-127,42,-23,-122,70,-84,-27,-10,26,99,26, 
  /* [38][0][][] */ -44,127,26,-76,25,15,85,-121,2,-14,-94,39,-69,-98,-92,29, 
  /* [39][0][][] */ 95,42,-127,-102,-11,-10,17,-72,17,-3,-2,-40,74,10,-127,-77, 
  /* [40][0][][] */ -32,12,-54,-85,-37,-20,9,-127,-11,-6,10,-16,31,66,37,64, 
  /* [41][0][][] */ -41,-81,-12,127,-3,-26,-82,-9,-8,-45,91,-41,-76,-14,11,31, 
  /* [42][0][][] */ -15,77,-28,-127,10,18,9,-24,51,-12,-28,32,64,-26,-19,3, 
  /* [43][0][][] */ -2,42,0,26,127,39,17,11,24,36,1,-80,-126,-55,-3,-35, 
  /* [44][0][][] */ 82,-2,36,47,-19,-12,-7,26,7,-11,17,2,127,9,-40,-38, 
  /* [45][0][][] */ 4,-82,-70,37,-46,-92,15,47,30,-13,21,27,-84,127,29,-23, 
  /* [46][0][][] */ -33,-77,44,102,8,14,-127,90,38,-50,52,-46,54,90,65,114, 
  /* [47][0][][] */ -25,-50,16,79,4,9,57,14,6,-53,-127,-40,52,-26,-52,16, 
  /* [48][0][][] */ -71,90,-31,-16,-7,52,-30,-127,28,-16,61,-21,23,-125,-53,2, 
  /* [49][0][][] */ -58,2,53,-44,7,8,123,127,-40,-39,-18,28,-41,43,-52,32, 
  /* [50][0][][] */ 72,23,-74,24,30,-127,-50,-12,-91,58,-58,-1,9,-99,-102,-48, 
  /* [51][0][][] */ -37,67,-33,119,-32,61,-69,-101,-55,-82,-9,-58,-5,36,-5,127, 
  /* [52][0][][] */ -127,-6,33,-1,33,61,61,-3,6,-83,-55,-54,-111,-55,-126,-14, 
  /* [53][0][][] */ -38,-85,-35,-127,-36,-23,8,57,37,-57,-60,23,-18,21,67,122, 
  /* [54][0][][] */ 6,-56,14,-6,-50,62,46,-18,-14,-81,37,19,-11,-11,-127,32, 
  /* [55][0][][] */ -3,-24,-33,32,64,-19,47,77,-61,-49,-127,-31,63,-24,-11,29, 
  /* [56][0][][] */ 44,-33,-69,-32,-127,0,-96,3,-6,-16,-6,25,72,-44,31,25, 
  /* [57][0][][] */ -51,-2,19,-26,127,56,59,37,-36,58,-12,-16,-57,79,-101,-20, 
  /* [58][0][][] */ 41,7,6,-11,52,0,-53,-54,55,-127,-89,-11,-65,-48,-32,48, 
  /* [59][0][][] */ -60,-5,-11,12,9,59,-89,-31,66,127,-69,2,-9,7,-11,-6, 
  /* [60][0][][] */ 11,-89,-2,10,-127,-81,52,2,16,56,-19,52,3,-36,27,65, 
  /* [61][0][][] */ 17,36,-85,1,-49,-12,-127,-81,-12,11,43,105,69,-52,110,50, 
  /* [62][0][][] */ 31,-20,36,-25,-19,32,34,127,-49,127,49,87,22,29,57,101, 
  /* [63][0][][] */ 16,-120,-9,-13,-74,7,47,-34,-14,-29,5,-7,-38,127,112,38, 
  /* [64][0][][] */ -10,2,-127,-27,32,67,31,-33,-29,-97,43,25,80,-15,-67,113, 
  /* [65][0][][] */ -22,-9,57,106,84,0,73,112,-24,-15,-127,-92,39,111,-83,-25, 
  /* [66][0][][] */ -53,-122,-7,-111,-66,-127,36,-41,25,-36,26,72,-44,-58,-52,99, 
  /* [67][0][][] */ -42,-78,-90,10,-68,127,-22,-93,-73,-21,-39,-100,22,-4,-76,25, 
  /* [68][0][][] */ 106,61,21,-29,-81,10,-65,-42,-94,-127,-15,3,31,-39,58,-75, 
  /* [69][0][][] */ 40,13,23,-12,-18,-39,-35,38,-4,127,-20,-11,5,44,64,-5, 
  /* [70][0][][] */ 43,-21,-17,55,-121,20,-7,-127,79,102,40,77,47,-68,0,34, 
  /* [71][0][][] */ 127,-83,72,96,-82,-41,30,-33,115,9,-74,28,69,-76,38,-7, 
  /* [72][0][][] */ 2,-33,34,112,57,13,-127,82,83,-3,40,4,-42,-62,-63,76, 
  /* [73][0][][] */ 62,8,73,-117,86,-74,-79,59,-10,127,-51,22,21,-78,14,-54, 
  /* [74][0][][] */ 89,10,25,38,-127,-30,39,-5,-71,-49,13,-39,25,-70,7,14, 
  /* [75][0][][] */ 65,127,-107,12,52,47,-27,-23,-12,-29,57,81,-114,48,45,81, 
  /* [76][0][][] */ -88,-43,8,-54,-51,-24,95,-4,-65,27,107,56,-67,-127,-24,94, 
  /* [77][0][][] */ -69,127,-30,10,-45,-75,47,88,49,-71,-3,48,-40,56,-20,91, 
  /* [78][0][][] */ 127,32,-41,38,-55,40,-118,-3,-13,-1,-85,3,44,-93,22,51, 
  /* [79][0][][] */ -65,-25,127,26,-14,-85,-36,-55,-38,3,10,-3,-50,99,-56,71, 
  /* [80][0][][] */ 72,91,26,-127,-7,27,86,-32,14,21,-40,27,80,-57,7,6, 
  /* [81][0][][] */ 31,-65,6,-106,90,38,-7,127,107,20,-9,-42,-23,23,-76,-64, 
  /* [82][0][][] */ 85,70,56,12,127,-82,23,59,-5,102,-35,25,-5,-31,31,-109, 
  /* [83][0][][] */ -48,84,20,14,109,54,115,127,15,51,-40,-85,-105,92,-73,-122, 
  /* [84][0][][] */ 37,-83,-21,127,3,-69,-69,33,-88,59,-94,-24,-99,83,2,-54, 
  /* [85][0][][] */ -87,31,-49,-17,-22,-38,-28,-39,-13,31,-12,-81,-127,-93,-53,32, 
  /* [86][0][][] */ -6,68,92,95,31,-48,58,18,1,42,-58,-72,42,67,-127,-74, 
  /* [87][0][][] */ -29,45,127,-34,-101,-39,21,17,46,-28,20,55,-62,13,-12,-3, 
  /* [88][0][][] */ -23,-75,-104,16,27,30,10,5,-14,-87,-107,-113,127,-31,1,50, 
  /* [89][0][][] */ 39,25,17,-99,10,-46,-50,47,127,-19,24,-104,11,-32,67,-79, 
  /* [90][0][][] */ -11,72,14,3,-47,29,58,108,10,-72,-7,127,47,11,-47,92, 
  /* [91][0][][] */ -50,5,-18,66,72,49,-30,-100,-27,30,-20,6,-92,-127,-54,-15, 
  /* [92][0][][] */ -29,47,-2,-50,-127,-17,-70,29,-52,42,104,85,-25,-19,58,26, 
  /* [93][0][][] */ 92,15,88,31,-127,-88,30,16,-9,-77,-12,-58,13,-53,-17,11, 
  /* [94][0][][] */ -32,-127,28,-112,12,18,-17,3,84,-28,1,45,15,46,-50,50, 
  /* [95][0][][] */ -35,-49,-10,-40,104,93,-18,37,59,35,-79,34,-16,127,-65,39, 
};
const TfArray<4, int> tensor_dimension32 = { 4, { 96,1,1,16 } };
const TfArray<96, float> quant32_scale = { 96, { 0.0016927034594118595, 0.0014625950716435909, 0.0019937842153012753, 0.002768020611256361, 0.0018879362614825368, 0.0010955670149996877, 0.0013421927578747272, 0.0021577258594334126, 0.0019601981621235609, 0.0012961733154952526, 0.003167296526953578, 0.0016668933676555753, 0.0020380811765789986, 0.0022030239924788475, 0.002192740561440587, 0.0019272420322522521, 0.0023915097117424011, 0.0014096765080466866, 0.0017439668299630284, 0.0023020715452730656, 0.0021065482869744301, 0.0011075986549258232, 0.0011700040195137262, 0.0019523093942552805, 0.0027531464584171772, 0.0017992951907217503, 0.00092528201639652252, 0.0020640718284994364, 0.002046205336228013, 0.0022143239621073008, 0.0012619789922609925, 0.0032524825073778629, 0.0010776972630992532, 0.0025459977332502604, 0.0025181814562529325, 0.0021671631839126348, 0.0018430191557854414, 0.0013946626568213105, 0.0018692398443818092, 0.0024491476360708475, 0.0029616516549140215, 0.0021352884359657764, 0.0035197506658732891, 0.0034046398941427469, 0.003839986165985465, 0.0026091947220265865, 0.0013721507275477052, 0.0022282304707914591, 0.0026124236173927784, 0.0027102099265903234, 0.0013767558848485351, 0.0019696108065545559, 0.0022315913811326027, 0.0031255988869816065, 0.0034767936449497938, 0.0025308534968644381, 0.0028183911927044392, 0.0018956837011501193, 0.0014273222768679261, 0.0029340051114559174, 0.0023964021820574999, 0.0017716664588078856, 0.0021380381658673286, 0.0020671202801167965, 0.0020823006052523851, 0.00117498729377985, 0.0015324399573728442, 0.0022859419696033001, 0.0016270525520667434, 0.0031604629475623369, 0.0015997912269085646, 0.001594355795532465, 0.0019079729681834579, 0.001344796153716743, 0.0022209710441529751, 0.0017887323629111052, 0.0021676551550626755, 0.0020716823637485504, 0.0021638360340148211, 0.0026056775823235512, 0.0021742735989391804, 0.0022747283801436424, 0.0012142994673922658, 0.0018063810421153903, 0.0024637265596538782, 0.0021515751723200083, 0.0022406296338886023, 0.0033410615287721157, 0.00072861491935327649, 0.0026550069451332092, 0.0029244821052998304, 0.0028246792498975992, 0.0010387706570327282, 0.0020918594673275948, 0.0030719959177076817, 0.0021647084504365921, } };
const TfArray<96, int> quant32_zero = { 96, { 0,0,0,0,0,0,0,0,0,0,0,0,0,0,0,0,0,0,0,0,0,0,0,0,0,0,0,0,0,0,0,0,0,0,0,0,0,0,0,0,0,0,0,0,0,0,0,0,0,0,0,0,0,0,0,0,0,0,0,0,0,0,0,0,0,0,0,0,0,0,0,0,0,0,0,0,0,0,0,0,0,0,0,0,0,0,0,0,0,0,0,0,0,0,0,0 } };
const TfLiteAffineQuantization quant32 = { (TfLiteFloatArray*)&quant32_scale, (TfLiteIntArray*)&quant32_zero, 0 };
const ALIGN(16) int32_t tensor_data33[96] = { 6095, 3219, 1406, -1017, 5488, 10973, 8773, 2269, -273, 8236, 662, -4298, 3921, 2913, 622, -412, 3826, 7642, -492, -193, 4052, 11172, 10804, -2550, -2967, -880, 14304, -50, 1769, 1416, 9447, -1124, 10636, 2772, 3914, -4038, 1251, -6483, 312, 1700, 2193, 1998, 1393, -306, 1095, 1934, 6081, 3735, 3299, 2420, 6913, 3138, -2136, 1523, 847, 2176, 1693, 2915, 8069, 992, -1078, 5726, 3796, 4476, 3909, 9426, -5265, 2870, 5158, -597, 6230, 2285, 3251, 4386, 3631, 2327, -750, 2480, 2524, 2857, 2539, 2658, 9287, 796, 1998, 4705, 1190, -722, 19292, -379, 925, -1356, 11738, 2844, -49, -856, };
const TfArray<1, int> tensor_dimension33 = { 1, { 96 } };
const TfArray<96, float> quant33_scale = { 96, { 0.00011698098387569189, 0.00010107842535944656, 0.00013778836000710726, 0.00019129503925796598, 0.00013047331594862044, 7.5713498517870903e-05, 9.2757552920375019e-05, 0.00014911819016560912, 0.0001354672567686066, 8.9577195467427373e-05, 0.0002188885846408084, 0.00011519727559061721, 0.00014084967551752925, 0.000152248700032942, 0.00015153802814893425, 0.00013318969286046922, 0.00016527475963812321, 9.7421281679999083e-05, 0.00012052374222548679, 0.00015909377543721348, 0.00014558136172126979, 7.6544994954019785e-05, 8.0857767898123711e-05, 0.00013492208381649107, 0.00019026709196623415, 0.0001243474252987653, 6.394527736119926e-05, 0.00014264586206991225, 0.00014141113206278533, 0.0001530296285636723, 8.7214059021789581e-05, 0.00022477569291368127, 7.4478542956057936e-05, 0.00017595126701053232, 0.00017402891535311937, 0.00014977040700614452, 0.00012736914504785091, 9.6383686468470842e-05, 0.00012918122229166329, 0.00016925805539358407, 0.00020467667491175234, 0.00014756756718270481, 0.00024324632249772549, 0.00023529113968834281, 0.00026537745725363493, 0.00018031874787993729, 9.4827912107575685e-05, 0.00015399069525301456, 0.00018054188694804907, 0.00018729979638010263, 9.5146169769577682e-05, 0.00013611775648314506, 0.00015422297292388976, 0.00021600689797196537, 0.00024027760082390159, 0.00017490466416347772, 0.00019477609021123499, 0.00013100873911753297, 9.8640761279966682e-05, 0.00020276605209801346, 0.00016561287338845432, 0.0001224380248459056, 0.00014775760064367205, 0.00014285654469858855, 0.0001439056359231472, 8.1202153523918241e-05, 0.00010590533929644153, 0.00015797908417880535, 0.00011244391498621553, 0.00021841631678398699, 0.00011055991490138695, 0.0001101842790376395, 0.00013185803254600614, 9.2937465524300933e-05, 0.00015348900342360139, 0.00012361744302324951, 0.00014980440028011799, 0.00014317182649392635, 0.00014954045764170587, 0.00018007567268796265, 0.00015026179607957602, 0.00015720412193331867, 8.391897426918149e-05, 0.0001248371263500303, 0.00017026558634825051, 0.00014869312872178853, 0.00015484758478123695, 0.00023089729074854404, 5.0353821279713884e-05, 0.00018348477897234261, 0.00020210792717989534, 0.00019521065405569971, 7.1788359491620213e-05, 0.00014456623466685414, 0.00021230244601611048, 0.00014960076077841222, } };
const TfArray<96, int> quant33_zero = { 96, { 0,0,0,0,0,0,0,0,0,0,0,0,0,0,0,0,0,0,0,0,0,0,0,0,0,0,0,0,0,0,0,0,0,0,0,0,0,0,0,0,0,0,0,0,0,0,0,0,0,0,0,0,0,0,0,0,0,0,0,0,0,0,0,0,0,0,0,0,0,0,0,0,0,0,0,0,0,0,0,0,0,0,0,0,0,0,0,0,0,0,0,0,0,0,0,0 } };
const TfLiteAffineQuantization quant33 = { (TfLiteFloatArray*)&quant33_scale, (TfLiteIntArray*)&quant33_zero, 0 };
const ALIGN(16) int8_t tensor_data34[1*3*3*96] = { 
  /* [0][0][][] */ 35,127,9,56,-18,-6,41,63,76,-104,-86,51,-17,-14,40,-76,-118,23,34,58,39,51,78,117,19,-25,-55,3,-22,17,25,-35,-59,1,-22,61,-26,30,-4,6,34,-52,-2,68,-103,-56,9,-38,-36,-76,-15,-8,19,67,-26,-25,-87,-38,-44,-127,-108,-1,-125,19,-46,47,65,-11,-21,51,41,-24,-53,10,45,-15,35,-50,-93,21,-17,-72,55,-40,-126,-68,7,45,-127,22,-54,55,66,9,87,-13, -39,-27,13,113,-11,76,-35,-1,76,19,-127,64,-32,-48,-111,127,-122,72,44,81,127,6,127,115,34,-3,19,42,-5,111,-5,-127,63,68,16,51,59,75,-38,-127,127,-21,72,127,-84,-79,127,-61,7,-125,-118,-22,29,127,-34,-127,13,26,-116,-66,-77,-127,-20,116,-42,87,127,-37,9,127,127,-3,-73,39,-41,-110,59,-62,-1,127,-9,-55,127,-73,-116,-68,86,96,83,93,-82,7,127,-30,127,32, 30,-104,18,33,-7,-19,-11,47,27,62,-81,78,-15,43,14,-92,-39,10,26,53,41,32,65,127,24,-54,19,36,3,2,-9,-69,-61,-93,-23,59,-8,3,-1,23,-8,10,-14,68,-53,-44,3,1,39,-58,0,0,-7,6,28,-4,90,-47,-22,-73,-127,22,-85,1,26,20,-11,-1,-39,1,16,-11,-23,-36,-3,4,38,-19,-79,-6,4,-88,34,-29,-36,-54,10,10,-95,18,-20,50,28,47,28,-23, 
  /* [0][1][][] */ 105,-4,44,127,9,-61,127,58,-19,-127,-85,127,-9,-118,-57,6,-96,-47,77,36,-105,-8,-123,-42,-12,62,-125,127,-78,75,126,101,30,71,15,114,-127,78,-14,-33,53,-127,8,94,-127,-82,8,-127,-116,-94,-106,27,127,-51,82,-23,-127,4,-63,9,-41,-78,-48,41,-101,-22,102,-111,-68,21,-60,-127,-122,69,127,-87,127,58,-115,-42,127,-127,-22,127,-19,-18,12,125,3,25,-58,47,-9,-82,82,-23, -127,0,-64,106,-86,-127,-124,-127,76,28,-42,66,-86,-127,-51,114,-127,-127,127,127,33,-127,-114,72,-127,127,20,89,-84,-7,-127,94,-127,81,127,-32,21,127,127,-84,-58,22,10,65,-11,-127,-81,-107,17,-127,-127,127,19,58,55,-74,33,25,84,-10,-55,-53,-127,127,-6,-127,63,127,12,56,-116,-75,-27,78,-124,-127,111,127,83,-45,-78,5,-84,101,-127,-99,127,127,125,127,-127,-127,-102,-73,50,127, 67,1,62,91,12,-37,13,33,-51,112,-83,89,2,-37,-127,58,0,-34,38,24,-101,-3,-73,-24,-1,6,127,1,127,103,11,-108,-29,-127,-8,127,-123,17,-31,-28,-22,90,7,102,-36,-30,-6,-92,127,-89,-100,8,50,-83,-127,27,119,5,-127,62,-37,-60,-21,43,127,-38,-3,-33,-76,6,-51,-51,-127,-127,0,-42,19,-31,-127,-42,-71,-121,-14,120,-119,4,18,20,-20,-4,6,60,-11,127,19,-30, 
  /* [0][2][][] */ 43,-118,37,4,13,7,42,60,-30,-53,-3,-36,20,-6,2,24,-19,20,-20,44,6,36,9,-23,27,94,-14,5,-29,34,3,29,-27,-20,-18,55,32,7,-4,-21,1,7,-23,-30,-59,-49,-13,-19,-25,48,-21,43,4,3,-36,-28,-5,-2,-3,32,-44,6,56,-10,-21,49,-27,-34,8,8,21,79,-24,22,8,-6,-28,-45,-44,3,1,-41,-21,-37,-110,35,-15,12,-89,47,-13,23,-3,3,-18,-27, -36,-7,127,33,127,58,-31,18,-127,-1,-40,-31,127,-40,-70,19,10,71,15,-48,16,10,42,-3,72,-68,3,40,-14,127,-19,7,-79,10,20,36,55,17,11,-93,-17,-13,-127,33,-44,-41,-51,-78,-21,-52,-53,86,100,-53,-33,-90,1,127,-26,9,21,-85,101,54,-45,30,-13,3,127,9,19,103,-61,41,-26,-69,17,-83,-53,-26,-7,-68,-21,-75,-102,127,52,26,87,52,15,23,-15,-6,-30,-7, 7,78,27,-29,8,-15,-17,59,11,76,9,21,15,11,-9,43,-25,9,-22,42,-9,25,-6,-16,17,82,15,29,12,47,-22,-60,-38,-23,-14,37,41,-25,6,-2,-11,-3,-5,8,-58,-17,-16,-18,27,35,-25,20,8,-14,8,-1,34,4,-21,48,-33,9,37,-29,20,13,-76,4,13,0,-6,92,26,-4,-14,-4,-25,-19,-35,10,-8,-62,-20,-7,-102,31,-1,-2,-81,55,1,32,-2,-2,-47,-39, 
};
const TfArray<4, int> tensor_dimension34 = { 4, { 1,3,3,96 } };
